{"learner":{"attributes":{"best_iteration":"499","best_score":"9.779189241460553","scikit_learn":"{\"_estimator_type\": \"regressor\"}"},"feature_names":["active_permits","active_permits_cost","is_construction_time","wind_speed","wind_dir_sin","wind_dir_cos","wind_from_cbd","cbd_wind_x_permits","wind_dir_source","temperature","hour","is_workday","season"],"feature_types":["int","int","int","float","float","float","float","float","int","float","int","int","int"],"gradient_booster":{"model":{"cats":{"enc":[],"feature_segments":[],"sorted_idx":[]},"gbtree_model_param":{"num_parallel_tree":"1","num_trees":"500"},"iteration_indptr":[0,1,2,3,4,5,6,7,8,9,10,11,12,13,14,15,16,17,18,19,20,21,22,23,24,25,26,27,28,29,30,31,32,33,34,35,36,37,38,39,40,41,42,43,44,45,46,47,48,49,50,51,52,53,54,55,56,57,58,59,60,61,62,63,64,65,66,67,68,69,70,71,72,73,74,75,76,77,78,79,80,81,82,83,84,85,86,87,88,89,90,91,92,93,94,95,96,97,98,99,100,101,102,103,104,105,106,107,108,109,110,111,112,113,114,115,116,117,118,119,120,121,122,123,124,125,126,127,128,129,130,131,132,133,134,135,136,137,138,139,140,141,142,143,144,145,146,147,148,149,150,151,152,153,154,155,156,157,158,159,160,161,162,163,164,165,166,167,168,169,170,171,172,173,174,175,176,177,178,179,180,181,182,183,184,185,186,187,188,189,190,191,192,193,194,195,196,197,198,199,200,201,202,203,204,205,206,207,208,209,210,211,212,213,214,215,216,217,218,219,220,221,222,223,224,225,226,227,228,229,230,231,232,233,234,235,236,237,238,239,240,241,242,243,244,245,246,247,248,249,250,251,252,253,254,255,256,257,258,259,260,261,262,263,264,265,266,267,268,269,270,271,272,273,274,275,276,277,278,279,280,281,282,283,284,285,286,287,288,289,290,291,292,293,294,295,296,297,298,299,300,301,302,303,304,305,306,307,308,309,310,311,312,313,314,315,316,317,318,319,320,321,322,323,324,325,326,327,328,329,330,331,332,333,334,335,336,337,338,339,340,341,342,343,344,345,346,347,348,349,350,351,352,353,354,355,356,357,358,359,360,361,362,363,364,365,366,367,368,369,370,371,372,373,374,375,376,377,378,379,380,381,382,383,384,385,386,387,388,389,390,391,392,393,394,395,396,397,398,399,400,401,402,403,404,405,406,407,408,409,410,411,412,413,414,415,416,417,418,419,420,421,422,423,424,425,426,427,428,429,430,431,432,433,434,435,436,437,438,439,440,441,442,443,444,445,446,447,448,449,450,451,452,453,454,455,456,457,458,459,460,461,462,463,464,465,466,467,468,469,470,471,472,473,474,475,476,477,478,479,480,481,482,483,484,485,486,487,488,489,490,491,492,493,494,495,496,497,498,499,500],"tree_info":[0,0,0,0,0,0,0,0,0,0,0,0,0,0,0,0,0,0,0,0,0,0,0,0,0,0,0,0,0,0,0,0,0,0,0,0,0,0,0,0,0,0,0,0,0,0,0,0,0,0,0,0,0,0,0,0,0,0,0,0,0,0,0,0,0,0,0,0,0,0,0,0,0,0,0,0,0,0,0,0,0,0,0,0,0,0,0,0,0,0,0,0,0,0,0,0,0,0,0,0,0,0,0,0,0,0,0,0,0,0,0,0,0,0,0,0,0,0,0,0,0,0,0,0,0,0,0,0,0,0,0,0,0,0,0,0,0,0,0,0,0,0,0,0,0,0,0,0,0,0,0,0,0,0,0,0,0,0,0,0,0,0,0,0,0,0,0,0,0,0,0,0,0,0,0,0,0,0,0,0,0,0,0,0,0,0,0,0,0,0,0,0,0,0,0,0,0,0,0,0,0,0,0,0,0,0,0,0,0,0,0,0,0,0,0,0,0,0,0,0,0,0,0,0,0,0,0,0,0,0,0,0,0,0,0,0,0,0,0,0,0,0,0,0,0,0,0,0,0,0,0,0,0,0,0,0,0,0,0,0,0,0,0,0,0,0,0,0,0,0,0,0,0,0,0,0,0,0,0,0,0,0,0,0,0,0,0,0,0,0,0,0,0,0,0,0,0,0,0,0,0,0,0,0,0,0,0,0,0,0,0,0,0,0,0,0,0,0,0,0,0,0,0,0,0,0,0,0,0,0,0,0,0,0,0,0,0,0,0,0,0,0,0,0,0,0,0,0,0,0,0,0,0,0,0,0,0,0,0,0,0,0,0,0,0,0,0,0,0,0,0,0,0,0,0,0,0,0,0,0,0,0,0,0,0,0,0,0,0,0,0,0,0,0,0,0,0,0,0,0,0,0,0,0,0,0,0,0,0,0,0,0,0,0,0,0,0,0,0,0,0,0,0,0,0,0,0,0,0,0,0,0,0,0,0,0,0,0,0,0,0,0,0,0,0,0,0,0,0,0,0,0,0,0,0,0,0,0,0,0,0,0,0,0,0,0,0,0,0,0,0,0,0,0,0,0,0,0,0,0,0,0,0,0,0,0,0,0,0,0,0,0,0,0,0,0,0,0,0,0],"trees":[{"base_weights":[-1.978121E-3,-3.4635441E0,1.4370879E0,-1.9677011E0,-5.000067E0,3.6163852E0,-8.2750577E-1,6.510405E-1,-3.23198E0,-3.3745887E0,-6.2312107E0,3.4773138E0,3.3739876E1,-2.319582E0,8.3413297E-1,5.107327E0,-5.897012E-1,-1.88806E0,-4.2192087E0,-1.6957191E0,-4.7764807E0,-7.954008E0,-4.1600013E0,6.432414E0,2.5066588E0,9.2997375E1,1.8998312E1,1.254376E0,-4.7079625E0,3.7614532E0,3.6183298E-2,3.2245517E0,1.7050882E1,-9.0544266E-1,6.109505E0,-2.2131138E0,1.3997422E1,-4.9568853E0,-1.9535527E0,-2.507525E-1,-2.9395127E0,-2.0222468E0,-5.406544E0,-7.227093E0,-9.015275E0,-1.7291751E0,-4.9483705E0,5.6182375E0,1.1132515E1,3.7996798E0,9.870122E-1,1.3578111E2,6.858389E0,1.2740992E1,4.5136887E1,-1.5228221E0,5.0880494E0,-6.203049E0,-4.098549E0,7.224504E0,2.6002235E0,-2.0679233E0,8.984054E-1,1.4845927E-1,8.160226E-1,1.5474858E0,1.19943775E-1,-5.0184757E-2,6.5113014E-1,6.729495E-1,-5.3697463E-2,-1.226798E-2,-1.3486183E-1,2.9922879E0,-1.7408118E-1,-1.9148952E-1,-3.093191E-1,4.914336E-3,-1.4194486E-1,1.2581538E-1,-1.1851996E-1,-9.094646E-2,-1.9941436E-1,2.4474068E-2,-1.4246391E-1,-3.1868955E-1,-1.8190525E-1,-3.9917287E-1,-3.1348577E-1,-4.9196005E-1,-3.5343203E-1,-1.1006959E-1,4.228332E-1,-2.5820154E-1,1.2174144E-1,4.7819063E-1,2.0782466E-1,5.363936E-1,2.9178646E0,7.1028434E-2,2.396196E-1,1.4952473E-1,-5.2070957E-2,3.797547E0,1.351164E1,1.1379828E0,-2.9624304E-1,8.3545655E-1,2.6233336E-1,3.5761979E0,1.1927806E0,-2.3639467E-1,-1.1834134E-2,3.3675587E-1,1.987409E-2,-3.4753987E-1,-2.3137987E-1,-1.1205401E-1,-2.3267384E-1,2.410678E-1,7.4025935E-1,5.8399327E-2,2.9453775E-1,-1.1566045E-1,1.9905408E-1,2.1200826E-2,2.6514018E-1],"categories":[],"categories_nodes":[],"categories_segments":[],"categories_sizes":[],"default_left":[0,0,0,0,0,0,0,0,0,0,0,0,0,0,0,0,0,0,0,0,0,0,0,0,0,0,0,0,0,0,0,0,0,0,0,0,0,0,0,0,0,0,0,0,0,0,0,0,0,0,0,0,0,0,0,0,0,0,0,0,0,0,0,0,0,0,0,0,0,0,0,0,0,0,0,0,0,0,0,0,0,0,0,0,0,0,0,0,0,0,0,0,0,0,0,0,0,0,0,0,0,0,0,0,0,0,0,0,0,0,0,0,0,0,0,0,0,0,0,0,0,0,0,0,0,0,0],"id":0,"left_children":[1,3,5,7,9,11,13,15,17,19,21,23,25,27,29,31,33,35,37,39,41,43,45,47,49,51,53,55,57,59,61,63,65,67,69,71,73,75,77,79,81,83,85,87,89,91,93,95,97,99,101,103,105,107,109,111,113,115,117,119,121,123,125,-1,-1,-1,-1,-1,-1,-1,-1,-1,-1,-1,-1,-1,-1,-1,-1,-1,-1,-1,-1,-1,-1,-1,-1,-1,-1,-1,-1,-1,-1,-1,-1,-1,-1,-1,-1,-1,-1,-1,-1,-1,-1,-1,-1,-1,-1,-1,-1,-1,-1,-1,-1,-1,-1,-1,-1,-1,-1,-1,-1,-1,-1,-1,-1],"loss_changes":[5.484247E5,7.429506E4,3.837906E5,5.424327E4,3.1892062E4,1.6590122E5,9.4554695E4,2.9500762E4,1.4651359E4,1.6172859E4,3.2341812E4,1.1313578E5,1.5721897E5,1.7152769E5,4.2148016E4,2.6074945E4,8.834448E3,2.4201967E4,1.0634953E4,5.624624E3,6.4896562E3,3.755125E3,7.890797E3,3.7259375E4,5.8346953E4,1.3174128E5,2.3467852E4,8.571506E4,1.0949094E4,1.5523918E4,2.5727316E4,3.3125156E3,3.21018E4,5.4691416E3,9.939855E3,4.3700273E3,7.553856E4,6.6335E3,2.8450493E3,8.504624E3,1.9694971E3,1.4534116E3,5.1904688E3,2.0817656E3,3.1526406E3,4.8814487E3,4.9676953E3,4.7916375E4,2.6872031E4,3.7885438E4,5.54879E4,1.725379E5,2.777356E3,3.480957E3,1.4017168E4,1.9245285E4,2.6125594E4,4.0744844E3,8.812875E3,1.7599598E4,1.3641449E4,6.125164E3,2.1014998E4,0E0,0E0,0E0,0E0,0E0,0E0,0E0,0E0,0E0,0E0,0E0,0E0,0E0,0E0,0E0,0E0,0E0,0E0,0E0,0E0,0E0,0E0,0E0,0E0,0E0,0E0,0E0,0E0,0E0,0E0,0E0,0E0,0E0,0E0,0E0,0E0,0E0,0E0,0E0,0E0,0E0,0E0,0E0,0E0,0E0,0E0,0E0,0E0,0E0,0E0,0E0,0E0,0E0,0E0,0E0,0E0,0E0,0E0,0E0,0E0,0E0,0E0,0E0,0E0],"parents":[2147483647,0,0,1,1,2,2,3,3,4,4,5,5,6,6,7,7,8,8,9,9,10,10,11,11,12,12,13,13,14,14,15,15,16,16,17,17,18,18,19,19,20,20,21,21,22,22,23,23,24,24,25,25,26,26,27,27,28,28,29,29,30,30,31,31,32,32,33,33,34,34,35,35,36,36,37,37,38,38,39,39,40,40,41,41,42,42,43,43,44,44,45,45,46,46,47,47,48,48,49,49,50,50,51,51,52,52,53,53,54,54,55,55,56,56,57,57,58,58,59,59,60,60,61,61,62,62],"right_children":[2,4,6,8,10,12,14,16,18,20,22,24,26,28,30,32,34,36,38,40,42,44,46,48,50,52,54,56,58,60,62,64,66,68,70,72,74,76,78,80,82,84,86,88,90,92,94,96,98,100,102,104,106,108,110,112,114,116,118,120,122,124,126,-1,-1,-1,-1,-1,-1,-1,-1,-1,-1,-1,-1,-1,-1,-1,-1,-1,-1,-1,-1,-1,-1,-1,-1,-1,-1,-1,-1,-1,-1,-1,-1,-1,-1,-1,-1,-1,-1,-1,-1,-1,-1,-1,-1,-1,-1,-1,-1,-1,-1,-1,-1,-1,-1,-1,-1,-1,-1,-1,-1,-1,-1,-1,-1],"split_conditions":[7E0,2E0,2E0,-4.848096E-1,2.32E0,9.15E0,3E0,4.4E1,1.9E0,4.88E3,3E0,-3.7460658E-1,1.9E1,2.6E0,4.1E1,4E1,1.3365E4,1.3365E4,9.063078E-1,1.52E0,4.08E-1,4.65E0,3.2E1,1.1949E4,1E0,1.7452406E-2,1.0674E4,1.8E1,1E0,-3.9073113E-1,1E0,8.23E0,1E0,9.15E0,1.3393E4,4.1E1,1.3381E4,1E0,4.1E1,3E0,7.6E1,2E0,1.2067E4,-1.04528464E-1,-1.0927389E1,2.8284271E1,1.3263E4,4.4E1,1.3489E4,1E0,2.83E0,1.4E1,6.156615E-1,-3.7460658E-1,1E0,1E0,1.6647173E3,4.6947157E-1,1.1E1,6.8E0,2.9E1,7.88E0,6.64E0,1.4845927E-1,8.160226E-1,1.5474858E0,1.19943775E-1,-5.0184757E-2,6.5113014E-1,6.729495E-1,-5.3697463E-2,-1.226798E-2,-1.3486183E-1,2.9922879E0,-1.7408118E-1,-1.9148952E-1,-3.093191E-1,4.914336E-3,-1.4194486E-1,1.2581538E-1,-1.1851996E-1,-9.094646E-2,-1.9941436E-1,2.4474068E-2,-1.4246391E-1,-3.1868955E-1,-1.8190525E-1,-3.9917287E-1,-3.1348577E-1,-4.9196005E-1,-3.5343203E-1,-1.1006959E-1,4.228332E-1,-2.5820154E-1,1.2174144E-1,4.7819063E-1,2.0782466E-1,5.363936E-1,2.9178646E0,7.1028434E-2,2.396196E-1,1.4952473E-1,-5.2070957E-2,3.797547E0,1.351164E1,1.1379828E0,-2.9624304E-1,8.3545655E-1,2.6233336E-1,3.5761979E0,1.1927806E0,-2.3639467E-1,-1.1834134E-2,3.3675587E-1,1.987409E-2,-3.4753987E-1,-2.3137987E-1,-1.1205401E-1,-2.3267384E-1,2.410678E-1,7.4025935E-1,5.8399327E-2,2.9453775E-1,-1.1566045E-1,1.9905408E-1,2.1200826E-2,2.6514018E-1],"split_indices":[10,12,12,6,3,3,12,0,3,0,12,6,0,3,0,0,0,0,6,3,3,3,0,0,12,6,0,10,11,6,11,3,12,3,0,0,0,12,0,12,0,10,0,4,7,7,0,0,0,11,3,10,6,6,12,2,7,6,10,3,0,3,3,0,0,0,0,0,0,0,0,0,0,0,0,0,0,0,0,0,0,0,0,0,0,0,0,0,0,0,0,0,0,0,0,0,0,0,0,0,0,0,0,0,0,0,0,0,0,0,0,0,0,0,0,0,0,0,0,0,0,0,0,0,0,0,0],"split_type":[0,0,0,0,0,0,0,0,0,0,0,0,0,0,0,0,0,0,0,0,0,0,0,0,0,0,0,0,0,0,0,0,0,0,0,0,0,0,0,0,0,0,0,0,0,0,0,0,0,0,0,0,0,0,0,0,0,0,0,0,0,0,0,0,0,0,0,0,0,0,0,0,0,0,0,0,0,0,0,0,0,0,0,0,0,0,0,0,0,0,0,0,0,0,0,0,0,0,0,0,0,0,0,0,0,0,0,0,0,0,0,0,0,0,0,0,0,0,0,0,0,0,0,0,0,0,0],"sum_hessian":[1.10092E5,3.2328E4,7.7764E4,1.6382E4,1.5946E4,3.9628E4,3.8136E4,5.334E3,1.1048E4,6.874E3,9.072E3,3.9447E4,1.81E2,2.0093E4,1.8043E4,1.161E3,4.173E3,4.68E3,6.368E3,3.129E3,3.745E3,4.951E3,4.121E3,9.752E3,2.9695E4,3.5E1,1.46E2,8.049E3,1.2044E4,3.864E3,1.4179E4,1.004E3,1.57E2,3.986E3,1.87E2,4.587E3,9.3E1,4.803E3,1.565E3,1.448E3,1.681E3,6.98E2,3.047E3,2.943E3,2.008E3,1.01E3,3.111E3,8.314E3,1.438E3,1.6043E4,1.3652E4,2.3E1,1.2E1,1.19E2,2.7E1,4.668E3,3.381E3,3.485E3,8.559E3,9.69E2,2.895E3,4.121E3,1.0058E4,9.86E2,1.8E1,8E1,7.7E1,3.959E3,2.7E1,9.2E1,9.5E1,9.06E2,3.681E3,2.5E1,6.8E1,2.508E3,2.295E3,4.72E2,1.093E3,6.28E2,8.2E2,8.14E2,8.67E2,1.73E2,5.25E2,1.968E3,1.079E3,1.64E3,1.303E3,1.408E3,6E2,9.66E2,4.4E1,3.023E3,8.8E1,2.246E3,6.068E3,1.427E3,1.1E1,4.724E3,1.1319E4,6.868E3,6.784E3,1.7E1,6E0,5E0,7E0,7.7E1,4.2E1,1.1E1,1.6E1,1.336E3,3.332E3,2.502E3,8.79E2,2.361E3,1.124E3,1.97E3,6.589E3,7.37E2,2.32E2,2.018E3,8.77E2,3.961E3,1.6E2,9.081E3,9.77E2],"tree_param":{"num_deleted":"0","num_feature":"13","num_nodes":"127","size_leaf_vector":"1"}},{"base_weights":[-4.5528086E-3,-1.7587994E0,7.766603E0,-3.786705E0,-7.1146035E-1,5.292111E0,1.1108427E1,-4.402771E0,-7.2275734E-1,1.7642199E0,-2.099869E0,8.828989E0,3.9395308E0,1.0217555E1,3.1285786E1,-3.1472497E0,-5.956391E0,3.230379E0,-1.5099013E0,3.4321177E0,-1.3804783E-1,-3.1244733E0,2.2150739E-1,8.627506E0,3.2471016E1,2.6536672E0,6.4613237E0,1.6139458E1,8.803572E0,8.766921E1,2.3706238E1,-1.1932174E0,-3.951228E0,-6.955709E0,-4.472827E0,1.5771004E0,1.1382491E1,-1.9870718E0,7.639596E0,1.6607711E0,5.6081276E0,3.8964791E0,-5.490926E-1,-1.9178773E0,-4.3278275E0,-1.6608275E0,9.9933314E-1,7.3796935E0,1.2437334E1,2.8050385E0,1.9568974E1,2.6887244E-1,3.5717351E0,5.7189484E0,1.5387781E1,1.3281771E1,2.6449862E1,7.7026596E0,1.9258795E1,6.3184845E1,8.657258E0,2.0014984E1,6.3568745E1,-1.2247219E-1,1.1727287E-2,-1.4559959E-1,-2.5604677E-1,-3.1382906E-1,-4.0518403E-1,-1.3116585E-1,-2.5666276E-1,-8.56083E-2,1.7081073E-1,1.2651294E0,1.4985657E-1,-1.19751595E-1,1.8497154E-2,9.4777644E-1,-1.4647995E-1,1.9197416E-1,-4.1370902E-2,5.831668E-1,2.2976716E-1,2.4531853E-1,2.7168283E-2,1.5366781E-1,-4.4016074E-2,-1.5800457E-1,-6.890724E-2,-9.2348024E-2,-2.6103696E-1,-7.1355696E-3,-1.3004272E-1,1.7813365E-1,2.2094447E-2,5.44765E-1,2.868795E-1,5.463491E-1,9.661229E-1,2.7421582E-1,1.5848367E0,-3.8207874E-2,1.6809952E-1,1.2374474E-1,2.662968E-1,1.9105124E-1,3.7298638E-1,4.137414E-1,1.7494844E0,5.296342E-1,9.1512996E-1,4.5876484E0,1.2415382E0,3.038006E-1,6.252737E-1,6.990821E-1,1.331694E0,4.8458433E0,2.3890405E0,7.917492E-1,1.5416304E0,3.8472478E0,7.1794385E-1],"categories":[],"categories_nodes":[],"categories_segments":[],"categories_sizes":[],"default_left":[0,0,0,0,0,0,0,0,0,0,0,0,0,0,0,0,0,0,0,0,0,0,0,0,0,0,0,0,0,0,0,0,0,0,0,0,0,0,0,0,0,0,0,0,0,0,0,0,0,0,0,0,0,0,0,0,0,0,0,0,0,0,0,0,0,0,0,0,0,0,0,0,0,0,0,0,0,0,0,0,0,0,0,0,0,0,0,0,0,0,0,0,0,0,0,0,0,0,0,0,0,0,0,0,0,0,0,0,0,0,0,0,0,0,0,0,0,0,0,0,0,0,0],"id":1,"left_children":[1,3,5,7,9,11,13,15,17,19,21,23,25,27,29,31,33,35,37,39,41,43,45,47,49,51,53,55,57,59,61,63,65,67,69,71,73,75,77,79,81,83,85,87,89,91,93,95,97,-1,99,101,103,105,107,109,111,113,115,117,-1,119,121,-1,-1,-1,-1,-1,-1,-1,-1,-1,-1,-1,-1,-1,-1,-1,-1,-1,-1,-1,-1,-1,-1,-1,-1,-1,-1,-1,-1,-1,-1,-1,-1,-1,-1,-1,-1,-1,-1,-1,-1,-1,-1,-1,-1,-1,-1,-1,-1,-1,-1,-1,-1,-1,-1,-1,-1,-1,-1,-1,-1],"loss_changes":[1.5081525E6,1.9169031E5,1.6842038E5,5.8017656E4,2.045823E5,5.597522E4,1.5547362E5,4.9901062E4,1.6020734E4,6.785373E4,9.0699734E4,1.5143953E4,2.7451625E4,6.937444E4,1.5433575E5,2.2234344E4,1.6924875E4,1.1505495E4,1.8757861E4,4.3912344E4,1.6572584E4,3.8404797E4,1.7099752E4,1.5177906E4,7.133709E3,1.2285969E4,1.8864578E4,4.67615E4,7.7016625E4,7.905128E4,4.6401906E4,7.4045303E3,1.2176375E4,5.2754688E3,5.6126094E3,4.312976E3,1.6732564E4,3.925046E3,2.5530395E4,3.406362E4,3.13025E4,3.1262568E3,1.0884232E4,8.853809E3,2.933064E4,4.873074E3,1.1807013E4,1.3919656E4,8.014453E3,0E0,3.0716577E3,4.9904062E3,7.7831836E3,8.700305E3,3.0245082E4,1.6736938E4,3.4305062E4,4.7322344E4,2.4458219E4,1.35555625E4,0E0,1.2986625E4,1.6667672E4,0E0,0E0,0E0,0E0,0E0,0E0,0E0,0E0,0E0,0E0,0E0,0E0,0E0,0E0,0E0,0E0,0E0,0E0,0E0,0E0,0E0,0E0,0E0,0E0,0E0,0E0,0E0,0E0,0E0,0E0,0E0,0E0,0E0,0E0,0E0,0E0,0E0,0E0,0E0,0E0,0E0,0E0,0E0,0E0,0E0,0E0,0E0,0E0,0E0,0E0,0E0,0E0,0E0,0E0,0E0,0E0,0E0,0E0,0E0,0E0],"parents":[2147483647,0,0,1,1,2,2,3,3,4,4,5,5,6,6,7,7,8,8,9,9,10,10,11,11,12,12,13,13,14,14,15,15,16,16,17,17,18,18,19,19,20,20,21,21,22,22,23,23,24,24,25,25,26,26,27,27,28,28,29,29,30,30,31,31,32,32,33,33,34,34,35,35,36,36,37,37,38,38,39,39,40,40,41,41,42,42,43,43,44,44,45,45,46,46,47,47,48,48,50,50,51,51,52,52,53,53,54,54,55,55,56,56,57,57,58,58,59,59,61,61,62,62],"right_children":[2,4,6,8,10,12,14,16,18,20,22,24,26,28,30,32,34,36,38,40,42,44,46,48,50,52,54,56,58,60,62,64,66,68,70,72,74,76,78,80,82,84,86,88,90,92,94,96,98,-1,100,102,104,106,108,110,112,114,116,118,-1,120,122,-1,-1,-1,-1,-1,-1,-1,-1,-1,-1,-1,-1,-1,-1,-1,-1,-1,-1,-1,-1,-1,-1,-1,-1,-1,-1,-1,-1,-1,-1,-1,-1,-1,-1,-1,-1,-1,-1,-1,-1,-1,-1,-1,-1,-1,-1,-1,-1,-1,-1,-1,-1,-1,-1,-1,-1,-1,-1,-1,-1],"split_conditions":[1.98E1,7E0,2.41E1,1.55E1,2.43E0,5.4392557E8,7.88E0,2.62E0,1.0258554E8,3.8964767E1,1.59E1,9.15E0,1.1012E4,1.7903318E8,2.8E1,7.7186374E8,1.15E1,4E1,1.3126E4,1.8E1,6.3E-1,-1.391731E-1,1E0,1.8E1,1.9E1,1E0,6.1E0,4E1,1.2944E4,1.5E1,1.2972E4,4.0673664E-1,6.2899694E0,4.55E0,4.1E1,-7.77146E-1,-5E-1,1.87E1,3.0864163E11,1E1,7.8E0,2.2E1,2.7946288E8,1E0,1E1,5.465973E8,1.0206168E8,1.1E1,8.681728E-1,2.8050385E0,2.19E1,1.8E1,6.638218E-1,2.14E1,6.0181504E-1,4.2261827E-1,7.05E-1,6.691306E-1,2.82E1,1E0,8.657258E0,-3.513996E1,1.3381E4,-1.2247219E-1,1.1727287E-2,-1.4559959E-1,-2.5604677E-1,-3.1382906E-1,-4.0518403E-1,-1.3116585E-1,-2.5666276E-1,-8.56083E-2,1.7081073E-1,1.2651294E0,1.4985657E-1,-1.19751595E-1,1.8497154E-2,9.4777644E-1,-1.4647995E-1,1.9197416E-1,-4.1370902E-2,5.831668E-1,2.2976716E-1,2.4531853E-1,2.7168283E-2,1.5366781E-1,-4.4016074E-2,-1.5800457E-1,-6.890724E-2,-9.2348024E-2,-2.6103696E-1,-7.1355696E-3,-1.3004272E-1,1.7813365E-1,2.2094447E-2,5.44765E-1,2.868795E-1,5.463491E-1,9.661229E-1,2.7421582E-1,1.5848367E0,-3.8207874E-2,1.6809952E-1,1.2374474E-1,2.662968E-1,1.9105124E-1,3.7298638E-1,4.137414E-1,1.7494844E0,5.296342E-1,9.1512996E-1,4.5876484E0,1.2415382E0,3.038006E-1,6.252737E-1,6.990821E-1,1.331694E0,4.8458433E0,2.3890405E0,7.917492E-1,1.5416304E0,3.8472478E0,7.1794385E-1],"split_indices":[9,10,9,9,3,1,3,3,1,7,9,3,0,1,0,1,9,0,0,10,3,5,11,10,0,11,3,0,0,10,0,5,7,3,0,5,6,9,1,10,9,10,1,11,10,1,1,10,6,0,9,10,6,9,6,6,3,6,9,2,0,7,0,0,0,0,0,0,0,0,0,0,0,0,0,0,0,0,0,0,0,0,0,0,0,0,0,0,0,0,0,0,0,0,0,0,0,0,0,0,0,0,0,0,0,0,0,0,0,0,0,0,0,0,0,0,0,0,0,0,0,0,0],"split_type":[0,0,0,0,0,0,0,0,0,0,0,0,0,0,0,0,0,0,0,0,0,0,0,0,0,0,0,0,0,0,0,0,0,0,0,0,0,0,0,0,0,0,0,0,0,0,0,0,0,0,0,0,0,0,0,0,0,0,0,0,0,0,0,0,0,0,0,0,0,0,0,0,0,0,0,0,0,0,0,0,0,0,0,0,0,0,0,0,0,0,0,0,0,0,0,0,0,0,0,0,0,0,0,0,0,0,0,0,0,0,0,0,0,0,0,0,0,0,0,0,0,0,0],"sum_hessian":[1.10627E5,9.0254E4,2.0373E4,3.0737E4,5.9517E4,1.1707E4,8.666E3,2.5591E4,5.146E3,2.1385E4,3.8132E4,3.237E3,8.47E3,8.301E3,3.65E2,1.4155E4,1.1436E4,8.54E2,4.292E3,1.1394E4,9.991E3,2.6455E4,1.1677E4,3.211E3,2.6E1,5.611E3,2.859E3,1.598E3,6.703E3,4.2E1,3.23E2,4.127E3,1.0028E4,6.831E3,4.605E3,7.11E2,1.43E2,4.08E3,2.12E2,6.282E3,5.112E3,9.23E2,9.068E3,1.3211E4,1.3244E4,3.414E3,8.263E3,2.421E3,7.9E2,8E0,1.8E1,1.56E3,4.051E3,2.641E3,2.18E2,1.253E3,3.45E2,6.066E3,6.37E2,3.4E1,8E0,2.97E2,2.6E1,2.195E3,1.932E3,5.312E3,4.716E3,4.296E3,2.535E3,1.213E3,3.392E3,2.55E2,4.56E2,5.3E1,9E1,3.478E3,6.02E2,1.02E2,1.1E2,3.349E3,2.933E3,7.31E2,4.381E3,7.09E2,2.14E2,7.59E2,8.309E3,4E3,9.211E3,3.506E3,9.738E3,1.306E3,2.108E3,1.475E3,6.788E3,7.69E2,1.652E3,6.5E2,1.4E2,9E0,9E0,1.17E3,3.9E2,2.494E3,1.557E3,1.265E3,1.376E3,1.61E2,5.7E1,8.18E2,4.35E2,7E0,3.38E2,4.533E3,1.533E3,3.73E2,2.64E2,9E0,2.5E1,2.16E2,8.1E1,2E1,6E0],"tree_param":{"num_deleted":"0","num_feature":"13","num_nodes":"123","size_leaf_vector":"1"}},{"base_weights":[-7.862163E-3,-1.6608995E0,7.345513E0,-3.6021328E0,-6.602423E-1,4.5165024E0,1.0265969E1,-4.2817698E0,-1.0334773E0,1.7075653E0,-1.9881847E0,8.033493E0,3.279587E0,9.403236E0,2.7848494E1,-3.1105895E0,-5.806221E0,-1.317138E0,9.7261E0,4.558514E0,7.289051E-1,-2.8205373E0,6.377019E-1,1.1230979E1,6.707088E0,2.3947217E0,6.06838E0,1.4901969E1,8.140191E0,8.591347E1,2.0505777E1,-1.1733118E0,-3.933056E0,-3.9825401E0,-6.5745726E0,1.3480997E0,-2.2396793E0,2.873232E1,-3.2349398E0,3.121324E0,6.2117515E0,5.5317273E0,6.939995E-2,-1.7133754E0,-3.987197E0,-1.192411E0,1.4072081E0,9.72387E0,1.444907E1,5.625629E0,9.885673E0,1.6044855E0,4.6808605E0,2.153007E1,5.488414E0,1.257561E1,2.391641E1,7.0676007E0,1.8017962E1,6.0398174E1,9.351893E0,1.6928793E1,6.4268135E1,-1.0347172E-1,3.7358183E-2,-1.447002E-1,-2.576539E-1,-1.460964E-1,-2.3883303E-1,-2.5172338E-1,-3.731863E-1,-3.565531E-2,1.8143849E-1,-1.5118979E-1,-4.585145E-2,1.7489685E-1,3.4195232E0,1.8351822E-1,-3.2938886E-1,2.6174617E-1,2.9132897E-2,2.5228694E-1,4.8436117E-1,1.6224481E-1,3.6353007E-1,1.7868838E-1,-2.8166536E-2,-1.4357786E-1,-6.0753155E-2,-8.177213E-2,-2.3998857E-1,-1.0774561E-1,1.5478067E-2,2.0041047E-1,3.6066733E-2,6.153595E-1,3.308982E-1,5.0960654E-1,8.5811615E-1,4.7439337E-1,2.3768008E-1,4.6046916E-1,1.586932E0,-1.7232388E-2,1.4347126E-1,4.8962852E-1,1.548665E-1,2.6373615E0,5.6571466E-1,2.1371154E-1,4.5362535E-1,5.14901E-1,8.4157497E-1,1.4691467E0,5.102269E-1,2.4267285E-1,4.789478E-1,8.541681E-1,3.3199127E0,2.34947E0,4.99741E0,5.9306294E-1,1.4361671E0,2.199772E0,4.635014E0],"categories":[],"categories_nodes":[],"categories_segments":[],"categories_sizes":[],"default_left":[0,0,0,0,0,0,0,0,0,0,0,0,0,0,0,0,0,0,0,0,0,0,0,0,0,0,0,0,0,0,0,0,0,0,0,0,0,0,0,0,0,0,0,0,0,0,0,0,0,0,0,0,0,0,0,0,0,0,0,0,0,0,0,0,0,0,0,0,0,0,0,0,0,0,0,0,0,0,0,0,0,0,0,0,0,0,0,0,0,0,0,0,0,0,0,0,0,0,0,0,0,0,0,0,0,0,0,0,0,0,0,0,0,0,0,0,0,0,0,0,0,0,0,0,0],"id":2,"left_children":[1,3,5,7,9,11,13,15,17,19,21,23,25,27,29,31,33,35,37,39,41,43,45,47,49,51,53,55,57,59,61,63,65,67,69,71,73,75,77,79,81,83,85,87,89,91,93,95,97,99,101,103,105,107,109,111,113,115,117,119,-1,121,123,-1,-1,-1,-1,-1,-1,-1,-1,-1,-1,-1,-1,-1,-1,-1,-1,-1,-1,-1,-1,-1,-1,-1,-1,-1,-1,-1,-1,-1,-1,-1,-1,-1,-1,-1,-1,-1,-1,-1,-1,-1,-1,-1,-1,-1,-1,-1,-1,-1,-1,-1,-1,-1,-1,-1,-1,-1,-1,-1,-1,-1,-1],"loss_changes":[1.3425642E6,1.751692E5,1.67441E5,5.354303E4,1.8710884E5,4.4776562E4,1.5103388E5,4.328703E4,1.9604031E4,5.9654812E4,8.33302E4,1.1286734E4,1.8791852E4,6.592006E4,1.9691953E5,2.18545E4,1.4738531E4,1.5382765E4,4.073911E4,1.2963164E4,5.042282E4,3.7386062E4,1.2925492E4,3.661914E3,6.4619062E3,1.0447223E4,1.633675E4,3.6922438E4,8.18235E4,1.22874625E5,6.387497E4,7.040359E3,1.2192703E4,2.6189258E3,1.0112344E4,7.5663857E3,4.8166855E3,6.681095E4,2.3162632E3,1.5691689E4,1.024432E4,7.619258E3,3.1040066E4,8.569867E3,2.6927344E4,3.9284985E3,1.1523259E4,4.2271953E3,2.6895195E3,4.7273203E3,6.8015938E3,1.0607723E4,1.1998168E4,2.0451102E4,7.6638125E3,1.3523125E4,2.6909281E4,3.876025E4,3.309433E4,1.810714E4,0E0,2.2670484E4,1.3789891E4,0E0,0E0,0E0,0E0,0E0,0E0,0E0,0E0,0E0,0E0,0E0,0E0,0E0,0E0,0E0,0E0,0E0,0E0,0E0,0E0,0E0,0E0,0E0,0E0,0E0,0E0,0E0,0E0,0E0,0E0,0E0,0E0,0E0,0E0,0E0,0E0,0E0,0E0,0E0,0E0,0E0,0E0,0E0,0E0,0E0,0E0,0E0,0E0,0E0,0E0,0E0,0E0,0E0,0E0,0E0,0E0,0E0,0E0,0E0,0E0,0E0,0E0],"parents":[2147483647,0,0,1,1,2,2,3,3,4,4,5,5,6,6,7,7,8,8,9,9,10,10,11,11,12,12,13,13,14,14,15,15,16,16,17,17,18,18,19,19,20,20,21,21,22,22,23,23,24,24,25,25,26,26,27,27,28,28,29,29,30,30,31,31,32,32,33,33,34,34,35,35,36,36,37,37,38,38,39,39,40,40,41,41,42,42,43,43,44,44,45,45,46,46,47,47,48,48,49,49,50,50,51,51,52,52,53,53,54,54,55,55,56,56,57,57,58,58,59,59,61,61,62,62],"right_children":[2,4,6,8,10,12,14,16,18,20,22,24,26,28,30,32,34,36,38,40,42,44,46,48,50,52,54,56,58,60,62,64,66,68,70,72,74,76,78,80,82,84,86,88,90,92,94,96,98,100,102,104,106,108,110,112,114,116,118,120,-1,122,124,-1,-1,-1,-1,-1,-1,-1,-1,-1,-1,-1,-1,-1,-1,-1,-1,-1,-1,-1,-1,-1,-1,-1,-1,-1,-1,-1,-1,-1,-1,-1,-1,-1,-1,-1,-1,-1,-1,-1,-1,-1,-1,-1,-1,-1,-1,-1,-1,-1,-1,-1,-1,-1,-1,-1,-1,-1,-1,-1,-1,-1,-1],"split_conditions":[1.98E1,7E0,2.34E1,1.49E1,2.43E0,4.7517555E8,7.73E0,2.67E0,1.3365E4,7.528111E8,1.66E1,2.8E0,1.1662E4,1.7903318E8,2.2E1,7.7186374E8,-4.539905E-1,4.7517555E8,3.0864163E11,1.8E1,5.27E-1,-1.391731E-1,1E0,1.8E1,2.22E1,1.8E1,1.5069318E11,4E1,1.2944E4,1.5E1,1.2972E4,8.660254E-1,6.2899694E0,6.580863E8,3.72E0,1.65E1,1.0458E4,3.0749655E11,-1.001721E4,1.1E1,5E-1,1.7E1,9.2E0,1E0,1E1,1.7E1,1.0258554E8,1.2E1,7.236045E7,1E1,8.77E0,1E0,-4.417564E-1,-8.1915206E-1,2.22E1,1.0284602E1,4.4E1,-1.767767E1,1.3489E4,9.75E0,9.351893E0,-3.513996E1,3.32E1,-1.0347172E-1,3.7358183E-2,-1.447002E-1,-2.576539E-1,-1.460964E-1,-2.3883303E-1,-2.5172338E-1,-3.731863E-1,-3.565531E-2,1.8143849E-1,-1.5118979E-1,-4.585145E-2,1.7489685E-1,3.4195232E0,1.8351822E-1,-3.2938886E-1,2.6174617E-1,2.9132897E-2,2.5228694E-1,4.8436117E-1,1.6224481E-1,3.6353007E-1,1.7868838E-1,-2.8166536E-2,-1.4357786E-1,-6.0753155E-2,-8.177213E-2,-2.3998857E-1,-1.0774561E-1,1.5478067E-2,2.0041047E-1,3.6066733E-2,6.153595E-1,3.308982E-1,5.0960654E-1,8.5811615E-1,4.7439337E-1,2.3768008E-1,4.6046916E-1,1.586932E0,-1.7232388E-2,1.4347126E-1,4.8962852E-1,1.548665E-1,2.6373615E0,5.6571466E-1,2.1371154E-1,4.5362535E-1,5.14901E-1,8.4157497E-1,1.4691467E0,5.102269E-1,2.4267285E-1,4.789478E-1,8.541681E-1,3.3199127E0,2.34947E0,4.99741E0,5.9306294E-1,1.4361671E0,2.199772E0,4.635014E0],"split_indices":[9,10,9,9,3,1,3,3,0,1,9,3,0,1,0,1,5,1,1,10,3,5,11,10,9,10,1,0,0,10,0,5,7,1,3,9,0,1,7,10,4,10,9,11,10,10,1,10,1,10,3,2,4,4,9,7,0,7,0,3,0,7,9,0,0,0,0,0,0,0,0,0,0,0,0,0,0,0,0,0,0,0,0,0,0,0,0,0,0,0,0,0,0,0,0,0,0,0,0,0,0,0,0,0,0,0,0,0,0,0,0,0,0,0,0,0,0,0,0,0,0,0,0,0,0],"split_type":[0,0,0,0,0,0,0,0,0,0,0,0,0,0,0,0,0,0,0,0,0,0,0,0,0,0,0,0,0,0,0,0,0,0,0,0,0,0,0,0,0,0,0,0,0,0,0,0,0,0,0,0,0,0,0,0,0,0,0,0,0,0,0,0,0,0,0,0,0,0,0,0,0,0,0,0,0,0,0,0,0,0,0,0,0,0,0,0,0,0,0,0,0,0,0,0,0,0,0,0,0,0,0,0,0,0,0,0,0,0,0,0,0,0,0,0,0,0,0,0,0,0,0,0,0],"sum_hessian":[1.10448E5,9.0177E4,2.0271E4,3.0672E4,5.9505E4,1.0298E4,9.973E3,2.4254E4,6.418E3,2.1381E4,3.8124E4,2.678E3,7.62E3,9.508E3,4.65E2,1.3718E4,1.0536E4,6.254E3,1.64E2,5.463E3,1.5918E4,2.8948E4,9.176E3,7.83E2,1.895E3,5.786E3,1.834E3,1.774E3,7.734E3,5.1E1,4.14E2,4.089E3,9.629E3,3.125E3,7.411E3,1.608E3,4.646E3,6.6E1,9.8E1,2.924E3,2.539E3,1.921E3,1.3997E4,1.4854E4,1.4094E4,2.716E3,6.46E3,5.36E2,2.47E2,1.416E3,4.79E2,4.301E3,1.485E3,6.5E1,1.769E3,1.412E3,3.62E2,6.978E3,7.56E2,4.2E1,9E0,3.84E2,3E1,2.788E3,1.301E3,5.202E3,4.427E3,1.34E3,1.785E3,2.715E3,4.696E3,8.45E2,7.63E2,2.916E3,1.73E3,4.1E1,2.5E1,3.2E1,6.6E1,1.595E3,1.329E3,1.903E3,6.36E2,8.31E2,1.09E3,2.14E3,1.1857E4,4.467E3,1.0387E4,3.62E3,1.0474E4,1.655E3,1.061E3,1.347E3,5.113E3,2.91E2,2.45E2,9.8E1,1.49E2,2.59E2,1.157E3,4.66E2,1.3E1,1.693E3,2.608E3,3.5E2,1.135E3,1.5E1,5E1,1.323E3,4.46E2,9.22E2,4.9E2,2.58E2,1.04E2,3.71E3,3.268E3,7.43E2,1.3E1,3.3E1,9E0,2.7E2,1.14E2,1.9E1,1.1E1],"tree_param":{"num_deleted":"0","num_feature":"13","num_nodes":"125","size_leaf_vector":"1"}},{"base_weights":[1.5033992E-2,-1.6075065E0,7.0022755E0,-3.4137788E0,-6.673174E-1,4.3281775E0,9.859417E0,-4.04779E0,-9.481289E-1,1.742217E0,-1.8273232E0,7.515786E0,3.1063876E0,9.046432E0,2.63974E1,-2.9035914E0,-5.522578E0,-1.3575795E0,1.46834545E1,4.471537E0,8.5458004E-1,-2.5154135E0,6.0659057E-1,1.1505986E1,6.3544154E0,2.0363925E0,5.2802873E0,1.4417568E1,7.812674E0,7.652331E1,2.0113522E1,-1.1324291E0,-3.658151E0,-3.9644809E0,-6.286664E0,1.2424144E0,-2.242398E0,3.5683304E1,-2.470171E0,6.305158E0,3.0865953E0,4.402901E0,3.2168914E-2,-8.531341E-1,-2.9533846E0,-1.3070384E0,1.4144065E0,2.5157646E1,1.0870411E1,5.1714625E0,9.263996E0,-1.421551E-1,2.849647E0,4.702494E0,1.6783401E1,1.2141324E1,2.2898636E1,6.7607074E0,1.7418133E1,5.577296E1,1.4879523E2,1.6833574E1,5.675901E1,2.9313175E-2,-8.794516E-2,-2.6370317E-2,-2.0122655E-1,-2.4666984E-1,-9.9483036E-2,-3.5864493E-1,-2.4490368E-1,-4.0835716E-2,1.9166248E-1,-1.3908415E-1,-3.4945127E-2,1.2537481E-1,4.3863583E0,2.8348675E-3,-4.4706106E-1,3.414531E-1,1.4656912E-1,3.9801937E-2,2.6372164E-1,2.9457334E-1,1.4172791E-1,1.7791167E-1,-3.2132074E-2,-1.9151188E-1,1.9435521E-2,-5.3555667E-2,-1.6452669E-1,1.2677966E-3,-1.0322582E-1,2.5467312E-1,4.892052E-2,1.4578384E0,4.2118597E-1,4.532269E-1,7.991606E-1,4.275492E-1,2.2364517E-1,4.3878952E-1,1.653717E0,-5.334877E-2,1.2704897E-1,1.8354987E-1,5.255973E-2,1.219696E-1,2.908307E-1,2.8672569E0,5.4972124E-1,5.073728E-1,8.356165E-1,4.322664E0,1.0731297E0,4.460349E-1,2.443325E-1,6.5766877E-1,1.2507926E0,1.4320508E0,3.7464273E0,1.1929722E1,1.7098407E0,1.406275E0,6.6274804E-1,1.7491139E0,4.268495E0],"categories":[],"categories_nodes":[],"categories_segments":[],"categories_sizes":[],"default_left":[0,0,0,0,0,0,0,0,0,0,0,0,0,0,0,0,0,0,0,0,0,0,0,0,0,0,0,0,0,0,0,0,0,0,0,0,0,0,0,0,0,0,0,0,0,0,0,0,0,0,0,0,0,0,0,0,0,0,0,0,0,0,0,0,0,0,0,0,0,0,0,0,0,0,0,0,0,0,0,0,0,0,0,0,0,0,0,0,0,0,0,0,0,0,0,0,0,0,0,0,0,0,0,0,0,0,0,0,0,0,0,0,0,0,0,0,0,0,0,0,0,0,0,0,0,0,0],"id":3,"left_children":[1,3,5,7,9,11,13,15,17,19,21,23,25,27,29,31,33,35,37,39,41,43,45,47,49,51,53,55,57,59,61,63,65,67,69,71,73,75,77,79,81,83,85,87,89,91,93,95,97,99,101,103,105,107,109,111,113,115,117,119,121,123,125,-1,-1,-1,-1,-1,-1,-1,-1,-1,-1,-1,-1,-1,-1,-1,-1,-1,-1,-1,-1,-1,-1,-1,-1,-1,-1,-1,-1,-1,-1,-1,-1,-1,-1,-1,-1,-1,-1,-1,-1,-1,-1,-1,-1,-1,-1,-1,-1,-1,-1,-1,-1,-1,-1,-1,-1,-1,-1,-1,-1,-1,-1,-1,-1],"loss_changes":[1.2496751E6,1.5191523E5,1.5866881E5,4.7867562E4,1.6444855E5,4.1773375E4,1.3477725E5,4.1088594E4,4.0118195E4,4.6317156E4,6.651431E4,1.3704078E4,1.8039492E4,6.33245E4,1.4650381E5,1.8330578E4,1.2643375E4,1.4049777E4,5.7723914E4,1.189568E4,4.210626E4,2.2538766E4,1.3534309E4,5.5312188E3,7.885664E3,9.216859E3,1.6929273E4,3.422E4,7.856697E4,6.968397E4,4.9406375E4,4.4155684E3,1.1032398E4,6.6948594E3,8.749031E3,8.277504E3,3.7903965E3,1.2409501E5,1.4557898E3,3.5468672E3,1.3401207E4,6.3216914E3,2.7877248E4,2.387736E4,1.5547469E4,2.6231172E3,9.869577E3,1.6950996E3,5.7735156E3,3.8358203E3,7.4399375E3,3.5139167E3,5.591615E3,6.1328984E3,2.801646E4,1.2690234E4,3.2552219E4,2.8372969E4,2.4556031E4,1.9682555E4,1.0504014E5,1.5225242E4,1.8197312E4,0E0,0E0,0E0,0E0,0E0,0E0,0E0,0E0,0E0,0E0,0E0,0E0,0E0,0E0,0E0,0E0,0E0,0E0,0E0,0E0,0E0,0E0,0E0,0E0,0E0,0E0,0E0,0E0,0E0,0E0,0E0,0E0,0E0,0E0,0E0,0E0,0E0,0E0,0E0,0E0,0E0,0E0,0E0,0E0,0E0,0E0,0E0,0E0,0E0,0E0,0E0,0E0,0E0,0E0,0E0,0E0,0E0,0E0,0E0,0E0,0E0,0E0,0E0,0E0],"parents":[2147483647,0,0,1,1,2,2,3,3,4,4,5,5,6,6,7,7,8,8,9,9,10,10,11,11,12,12,13,13,14,14,15,15,16,16,17,17,18,18,19,19,20,20,21,21,22,22,23,23,24,24,25,25,26,26,27,27,28,28,29,29,30,30,31,31,32,32,33,33,34,34,35,35,36,36,37,37,38,38,39,39,40,40,41,41,42,42,43,43,44,44,45,45,46,46,47,47,48,48,49,49,50,50,51,51,52,52,53,53,54,54,55,55,56,56,57,57,58,58,59,59,60,60,61,61,62,62],"right_children":[2,4,6,8,10,12,14,16,18,20,22,24,26,28,30,32,34,36,38,40,42,44,46,48,50,52,54,56,58,60,62,64,66,68,70,72,74,76,78,80,82,84,86,88,90,92,94,96,98,100,102,104,106,108,110,112,114,116,118,120,122,124,126,-1,-1,-1,-1,-1,-1,-1,-1,-1,-1,-1,-1,-1,-1,-1,-1,-1,-1,-1,-1,-1,-1,-1,-1,-1,-1,-1,-1,-1,-1,-1,-1,-1,-1,-1,-1,-1,-1,-1,-1,-1,-1,-1,-1,-1,-1,-1,-1,-1,-1,-1,-1,-1,-1,-1,-1,-1,-1,-1,-1,-1,-1,-1,-1],"split_conditions":[1.9631E1,7E0,2.34E1,1.49E1,2.26E0,5.4392557E8,7.73E0,2.67E0,1.3365E4,7.178111E8,1.6759E1,2.42E0,1.1012E4,1.7903318E8,2.8E1,7.7186374E8,2E0,4.7517555E8,3.0864163E11,2E0,6.66E-1,1E1,1E0,1.7E1,2.2E1,1E0,6.64E0,4E1,1.2944E4,1.5E1,1.2826E4,2E0,5.3E0,5.2335955E-2,3E0,1.66E1,1.78E1,3.0749655E11,1.3413E4,2.3E1,1.7E1,4.33E-1,9.3E0,1E0,2.82E0,5.4392557E8,1E1,2.14E0,1.9E1,1E1,8.77E0,1.8E1,1.90809E-1,2.06E1,-9.396926E-1,1.7E1,7.05E-1,-1.7452406E-2,2.82E1,8.47E0,2E0,-8.7155744E-2,3.32E1,2.9313175E-2,-8.794516E-2,-2.6370317E-2,-2.0122655E-1,-2.4666984E-1,-9.9483036E-2,-3.5864493E-1,-2.4490368E-1,-4.0835716E-2,1.9166248E-1,-1.3908415E-1,-3.4945127E-2,1.2537481E-1,4.3863583E0,2.8348675E-3,-4.4706106E-1,3.414531E-1,1.4656912E-1,3.9801937E-2,2.6372164E-1,2.9457334E-1,1.4172791E-1,1.7791167E-1,-3.2132074E-2,-1.9151188E-1,1.9435521E-2,-5.3555667E-2,-1.6452669E-1,1.2677966E-3,-1.0322582E-1,2.5467312E-1,4.892052E-2,1.4578384E0,4.2118597E-1,4.532269E-1,7.991606E-1,4.275492E-1,2.2364517E-1,4.3878952E-1,1.653717E0,-5.334877E-2,1.2704897E-1,1.8354987E-1,5.255973E-2,1.219696E-1,2.908307E-1,2.8672569E0,5.4972124E-1,5.073728E-1,8.356165E-1,4.322664E0,1.0731297E0,4.460349E-1,2.443325E-1,6.5766877E-1,1.2507926E0,1.4320508E0,3.7464273E0,1.1929722E1,1.7098407E0,1.406275E0,6.6274804E-1,1.7491139E0,4.268495E0],"split_indices":[9,10,9,9,3,1,3,3,0,1,9,3,0,1,0,1,12,1,1,12,3,10,11,0,9,11,3,0,0,10,0,10,9,4,12,9,9,1,0,10,10,3,9,2,3,1,10,3,10,10,3,10,4,9,4,10,3,4,9,3,12,4,9,0,0,0,0,0,0,0,0,0,0,0,0,0,0,0,0,0,0,0,0,0,0,0,0,0,0,0,0,0,0,0,0,0,0,0,0,0,0,0,0,0,0,0,0,0,0,0,0,0,0,0,0,0,0,0,0,0,0,0,0,0,0,0,0],"split_type":[0,0,0,0,0,0,0,0,0,0,0,0,0,0,0,0,0,0,0,0,0,0,0,0,0,0,0,0,0,0,0,0,0,0,0,0,0,0,0,0,0,0,0,0,0,0,0,0,0,0,0,0,0,0,0,0,0,0,0,0,0,0,0,0,0,0,0,0,0,0,0,0,0,0,0,0,0,0,0,0,0,0,0,0,0,0,0,0,0,0,0,0,0,0,0,0,0,0,0,0,0,0,0,0,0,0,0,0,0,0,0,0,0,0,0,0,0,0,0,0,0,0,0,0,0,0,0],"sum_hessian":[1.10227E5,8.9455E4,2.0772E4,3.0622E4,5.8833E4,1.0731E4,1.0041E4,2.4358E4,6.264E3,1.9119E4,3.9714E4,2.972E3,7.759E3,9.572E3,4.69E2,1.3718E4,1.064E4,6.105E3,1.59E2,4.691E3,1.4428E4,3.0961E4,8.753E3,6.68E2,2.304E3,5.201E3,2.558E3,1.786E3,7.786E3,5.1E1,4.18E2,4.099E3,9.619E3,3.503E3,7.137E3,1.55E3,4.555E3,7.1E1,8.8E1,2.017E3,2.674E3,2.714E3,1.1714E4,6.457E3,2.4504E4,2.598E3,6.155E3,2.8E1,6.4E2,1.64E3,6.64E2,1.414E3,3.787E3,2.437E3,1.21E2,1.41E3,3.76E2,7.019E3,7.67E2,4.1E1,1E1,3.85E2,3.3E1,1.095E3,3.004E3,1.008E3,8.611E3,2.349E3,1.154E3,4.354E3,2.783E3,8.64E2,6.86E2,3.375E3,1.18E3,4.4E1,2.7E1,6.4E1,2.4E1,1.745E3,2.72E2,1.307E3,1.367E3,1.391E3,1.323E3,1.881E3,9.833E3,1.9E3,4.557E3,3.723E3,2.0781E4,9.42E2,1.656E3,6.51E2,5.504E3,2.2E1,6E0,4.75E2,1.65E2,2.79E2,1.361E3,6.52E2,1.2E1,1.052E3,3.62E2,2.599E3,1.188E3,8.05E2,1.632E3,1.4E1,1.07E2,9.84E2,4.26E2,7E0,3.69E2,3.259E3,3.76E3,4.93E2,2.74E2,1.8E1,2.3E1,5E0,5E0,9.1E1,2.94E2,2E1,1.3E1],"tree_param":{"num_deleted":"0","num_feature":"13","num_nodes":"127","size_leaf_vector":"1"}},{"base_weights":[2.484156E-2,-2.8656847E0,1.223307E0,-1.5875365E0,-4.1918163E0,3.0790668E0,-7.0361435E-1,-2.5737827E0,3.483984E-1,-2.471039E0,-5.0886106E0,2.9998784E0,4.1867836E1,-2.0447571E0,7.8828305E-1,-1.9738435E0,-3.6513865E0,2.7923426E-1,3.2208512E0,-3.2923138E-3,-3.4268422E0,-6.455755E0,-3.5144606E0,4.435294E0,1.4989547E0,1.0654206E2,1.5946224E1,8.6159986E-1,-4.0206194E0,3.3202908E0,1.098884E-1,-2.1255965E0,3.5238028E0,-2.9217384E0,-6.1913295E0,3.1446202E0,-9.1736364E-1,-2.979866E-1,6.20669E0,-1.4361123E0,-3.8870876E0,-4.8888545E0,-6.852886E0,-1.2247255E0,-4.190494E0,2.1249378E0,5.3466253E0,2.474738E0,2.2327848E-1,2.5431854E1,1.9271393E2,1.1342472E1,2.4262588E0,-2.0232449E0,3.9014208E0,-2.1445692E0,-4.653318E0,2.7538927E0,1.0611922E1,-1.7722468E0,8.7955564E-1,-6.828735E-3,-1.223159E-1,-1.0030254E-1,1.314763E0,-1.14088975E-1,-2.4889962E-1,-2.5186298E-2,-3.2612184E-1,-2.3464378E-2,2.4851286E-1,1.0221621E-1,-9.066152E-2,2.7864116E-1,-2.5768328E-2,4.9792624E-1,-3.974403E-2,5.1687974E-2,-1.15552776E-1,-1.18317924E-1,-2.3052254E-1,-1.6193229E-1,-2.9404673E-1,-3.0653617E-1,-3.9584336E-1,1.6785563E0,-7.222205E-2,-2.2331996E-1,-6.0406595E-2,1.8812963E-1,3.5560694E-2,2.5427794E-1,9.1089743E-1,1.0102673E-1,3.1799766E-1,8.001256E-2,-7.4895255E-2,-1.1354232E-1,2.9065073E0,1.2108489E1,5.556955E0,-1.5327491E-1,6.6235054E-1,1.0709691E-2,-2.0314251E-1,6.900249E-2,3.1112307E-1,-1.3627316E-1,-4.163817E-2,-3.045134E-1,-2.0283139E-1,1.032296E-1,4.353647E-1,6.92365E-1,-7.611946E-2,-9.969496E-2,1.7823821E-1,2.521247E-2,2.599327E-1],"categories":[],"categories_nodes":[],"categories_segments":[],"categories_sizes":[],"default_left":[0,0,0,0,0,0,0,0,0,0,0,0,0,0,0,0,0,0,0,0,0,0,0,0,0,0,0,0,0,0,0,0,0,0,0,0,0,0,0,0,0,0,0,0,0,0,0,0,0,0,0,0,0,0,0,0,0,0,0,0,0,0,0,0,0,0,0,0,0,0,0,0,0,0,0,0,0,0,0,0,0,0,0,0,0,0,0,0,0,0,0,0,0,0,0,0,0,0,0,0,0,0,0,0,0,0,0,0,0,0,0,0,0,0,0,0,0,0,0],"id":4,"left_children":[1,3,5,7,9,11,13,15,17,19,21,23,25,27,29,31,33,35,-1,37,39,41,43,45,47,49,51,53,55,57,59,61,63,65,67,69,71,73,75,77,79,81,83,85,87,89,91,93,95,97,99,101,-1,103,105,107,109,111,113,115,117,-1,-1,-1,-1,-1,-1,-1,-1,-1,-1,-1,-1,-1,-1,-1,-1,-1,-1,-1,-1,-1,-1,-1,-1,-1,-1,-1,-1,-1,-1,-1,-1,-1,-1,-1,-1,-1,-1,-1,-1,-1,-1,-1,-1,-1,-1,-1,-1,-1,-1,-1,-1,-1,-1,-1,-1,-1,-1],"loss_changes":[3.828283E5,5.4894156E4,2.7935175E5,3.1494934E4,2.4517875E4,1.2210959E5,7.668608E4,7.057711E3,2.4655225E4,1.2850078E4,2.24645E4,8.555734E4,1.3409434E5,1.15905586E5,3.1165594E4,5.8658438E3,7.222617E3,1.9076824E4,0E0,2.7871797E3,3.5924336E3,3.4455781E3,7.516293E3,4.273025E4,2.416816E4,1.5585556E5,8.298745E3,7.164522E4,1.42515E4,1.5805059E4,2.0732727E4,4.3592227E3,2.3852162E4,3.985082E3,1.6369883E3,1.0815937E4,1.041782E4,1.8584618E3,1.820459E3,1.5993665E3,3.4971133E3,1.8374688E3,3.3768438E3,8.527006E3,3.0811172E3,1.3295785E4,4.8822844E4,1.9400383E4,1.9948512E4,1.1907808E4,1.7463344E4,1.494957E3,0E0,1.9131025E4,2.3271484E4,2.3081748E3,7.6783125E3,1.4587033E4,1.085659E4,4.921131E3,1.646334E4,0E0,0E0,0E0,0E0,0E0,0E0,0E0,0E0,0E0,0E0,0E0,0E0,0E0,0E0,0E0,0E0,0E0,0E0,0E0,0E0,0E0,0E0,0E0,0E0,0E0,0E0,0E0,0E0,0E0,0E0,0E0,0E0,0E0,0E0,0E0,0E0,0E0,0E0,0E0,0E0,0E0,0E0,0E0,0E0,0E0,0E0,0E0,0E0,0E0,0E0,0E0,0E0,0E0,0E0,0E0,0E0,0E0,0E0],"parents":[2147483647,0,0,1,1,2,2,3,3,4,4,5,5,6,6,7,7,8,8,9,9,10,10,11,11,12,12,13,13,14,14,15,15,16,16,17,17,19,19,20,20,21,21,22,22,23,23,24,24,25,25,26,26,27,27,28,28,29,29,30,30,31,31,32,32,33,33,34,34,35,35,36,36,37,37,38,38,39,39,40,40,41,41,42,42,43,43,44,44,45,45,46,46,47,47,48,48,49,49,50,50,51,51,53,53,54,54,55,55,56,56,57,57,58,58,59,59,60,60],"right_children":[2,4,6,8,10,12,14,16,18,20,22,24,26,28,30,32,34,36,-1,38,40,42,44,46,48,50,52,54,56,58,60,62,64,66,68,70,72,74,76,78,80,82,84,86,88,90,92,94,96,98,100,102,-1,104,106,108,110,112,114,116,118,-1,-1,-1,-1,-1,-1,-1,-1,-1,-1,-1,-1,-1,-1,-1,-1,-1,-1,-1,-1,-1,-1,-1,-1,-1,-1,-1,-1,-1,-1,-1,-1,-1,-1,-1,-1,-1,-1,-1,-1,-1,-1,-1,-1,-1,-1,-1,-1,-1,-1,-1,-1,-1,-1,-1,-1,-1,-1],"split_conditions":[7E0,2E0,2E0,6.691306E-1,1.939E0,9.75E0,3E0,2.67E0,1.6647173E3,4.130958E9,3E0,4.092342E1,1.9E1,2.6E0,4.1E1,1.3365E4,-2.2495106E-1,5.4392557E8,3.2208512E0,2.35E2,4.08E-1,-1.5643446E-1,3.2E1,1E0,1E0,-1.7364818E-1,1.3365E4,1.7E1,-2.923717E-1,4.0597555E8,1E0,1.0177254E8,3.4202015E-1,1.90809E-1,-7.1650503E3,7.236045E7,-9.287965E3,2.3521198E7,5E0,2E0,8.666E3,1.15E2,4.55E0,-9.998477E-1,2.9722958E11,5.4392557E8,1.3365E4,1.2944E4,2.97E0,4.539905E-1,1.7364818E-1,-3.7409597E3,2.4262588E0,1.1E1,-2.4492937E-16,1.7E1,1E0,9.9026805E-1,3.2E1,7.88E0,6.96E0,-6.828735E-3,-1.223159E-1,-1.0030254E-1,1.314763E0,-1.14088975E-1,-2.4889962E-1,-2.5186298E-2,-3.2612184E-1,-2.3464378E-2,2.4851286E-1,1.0221621E-1,-9.066152E-2,2.7864116E-1,-2.5768328E-2,4.9792624E-1,-3.974403E-2,5.1687974E-2,-1.15552776E-1,-1.18317924E-1,-2.3052254E-1,-1.6193229E-1,-2.9404673E-1,-3.0653617E-1,-3.9584336E-1,1.6785563E0,-7.222205E-2,-2.2331996E-1,-6.0406595E-2,1.8812963E-1,3.5560694E-2,2.5427794E-1,9.1089743E-1,1.0102673E-1,3.1799766E-1,8.001256E-2,-7.4895255E-2,-1.1354232E-1,2.9065073E0,1.2108489E1,5.556955E0,-1.5327491E-1,6.6235054E-1,1.0709691E-2,-2.0314251E-1,6.900249E-2,3.1112307E-1,-1.3627316E-1,-4.163817E-2,-3.045134E-1,-2.0283139E-1,1.032296E-1,4.353647E-1,6.92365E-1,-7.611946E-2,-9.969496E-2,1.7823821E-1,2.521247E-2,2.599327E-1],"split_indices":[10,12,12,5,3,3,12,3,7,1,12,7,0,3,0,0,5,1,0,0,3,5,0,11,12,4,0,10,5,1,11,1,5,4,7,1,7,1,10,10,0,0,3,5,1,1,0,0,3,5,4,7,0,10,4,10,11,5,0,3,3,0,0,0,0,0,0,0,0,0,0,0,0,0,0,0,0,0,0,0,0,0,0,0,0,0,0,0,0,0,0,0,0,0,0,0,0,0,0,0,0,0,0,0,0,0,0,0,0,0,0,0,0,0,0,0,0,0,0],"split_type":[0,0,0,0,0,0,0,0,0,0,0,0,0,0,0,0,0,0,0,0,0,0,0,0,0,0,0,0,0,0,0,0,0,0,0,0,0,0,0,0,0,0,0,0,0,0,0,0,0,0,0,0,0,0,0,0,0,0,0,0,0,0,0,0,0,0,0,0,0,0,0,0,0,0,0,0,0,0,0,0,0,0,0,0,0,0,0,0,0,0,0,0,0,0,0,0,0,0,0,0,0,0,0,0,0,0,0,0,0,0,0,0,0,0,0,0,0,0,0],"sum_hessian":[1.10508E5,3.2389E4,7.8119E4,1.6494E4,1.5895E4,3.9794E4,3.8325E4,1.0927E4,5.567E3,5.447E3,1.0448E4,3.9714E4,8E1,2.0182E4,1.8143E4,7.021E3,3.906E3,5.562E3,5E0,1.521E3,3.926E3,5.59E3,4.858E3,2.0299E4,1.9415E4,2.2E1,5.8E1,8.168E3,1.2014E4,3.833E3,1.431E4,6.833E3,1.88E2,3.036E3,8.7E2,1.638E3,3.924E3,1.453E3,6.8E1,7.38E2,3.188E3,1.133E3,4.457E3,1.108E3,3.75E3,5.743E3,1.4556E4,1.1E4,8.415E3,1.2E1,1E1,5.2E1,6E0,4.191E3,3.977E3,3.031E3,8.983E3,3.558E3,2.75E2,4.153E3,1.0157E4,9.49E2,5.884E3,1.52E2,3.6E1,2.317E3,7.19E2,4.8E1,8.22E2,5.5E2,1.088E3,9.11E2,3.013E3,5.1E1,1.402E3,4.4E1,2.4E1,1.93E2,5.45E2,1.029E3,2.159E3,4.27E2,7.06E2,2.659E3,1.798E3,6E0,1.102E3,3.432E3,3.18E2,2.66E3,3.083E3,1.4268E4,2.88E2,9.85E3,1.15E3,4.675E3,3.74E3,7E0,5E0,5E0,5E0,6E0,4.6E1,1.999E3,2.192E3,1.907E3,2.07E3,2.1E3,9.31E2,2.633E3,6.35E3,3.19E3,3.68E2,2.17E2,5.8E1,3.988E3,1.65E2,9.346E3,8.11E2],"tree_param":{"num_deleted":"0","num_feature":"13","num_nodes":"119","size_leaf_vector":"1"}},{"base_weights":[-1.6228961E-3,-2.69273E0,1.1191103E0,-1.4520309E0,-3.974078E0,2.861989E0,-6.9326276E-1,4.891019E-1,-2.6443994E0,-2.6670604E0,-4.9368386E0,5.67677E0,2.0408916E0,-1.9030389E0,6.552215E-1,3.5175567E0,-5.3124243E-1,-2.873599E0,5.4357386E0,-5.379166E-1,-3.5531633E0,-6.3169656E0,-3.2554488E0,5.470885E0,4.0868977E1,4.2833977E0,1.3724562E0,9.0974075E-1,-3.796381E0,3.0023458E0,2.4494115E-2,-3.4368956E-1,5.5491424E0,-8.159114E-1,5.0989876E0,-3.4075418E0,-1.1575599E0,-1.6691439E0,5.4032135E1,-7.6248705E-1,4.7669244E0,-1.532349E0,-3.92225E0,-4.322727E0,-6.571019E0,-1.2901413E0,-3.8859158E0,9.1217165E0,4.2641997E0,1.4348766E2,1.3019585E1,8.2163315E0,3.1394036E0,6.4245635E-1,3.0430956E0,-1.8924953E0,3.8318937E0,-1.7036535E0,-4.3867936E0,2.4973342E0,9.832588E0,-1.7810198E0,7.6385856E-1,1.2586537E-1,-1.4022674E-1,1.1270156E0,1.6493088E-1,-8.226948E-2,1.7885951E-2,3.2899933E0,1.7139639E-1,-1.1564691E-1,-2.1011932E-1,-3.5994347E-2,-1.5508358E-1,1.375539E-1,-3.383356E-1,8.052607E0,2.5062887E-2,8.421005E-2,-5.944183E-2,1.31258E-1,6.3378084E-1,3.8272683E-2,-1.1665805E-1,-2.2990523E-1,-1.3959496E-1,-2.41553E-1,-4.6746694E-2,-2.9483798E-1,-3.7536412E-1,1.9447178E0,-7.6462045E-2,-3.1064767E-2,-2.0823593E-1,6.124336E-1,3.719576E-1,1.1843987E-1,4.2901477E-1,2.240136E0,1.0912899E1,9.227695E-1,3.0587152E-1,3.2841298E-1,1.9620793E0,1.5035945E-1,1.2415804E0,8.226118E-2,-2.9906416E-2,1.4447878E-1,1.2931865E0,-2.6114056E-1,-2.7012784E-2,7.781607E-2,3.1188685E-1,-1.1903421E-1,-1.2011844E-2,-2.8724724E-1,-1.9196115E-1,8.797876E-2,3.8513663E-1,6.672415E-1,-7.6460265E-2,-1.4993939E-1,-5.873984E-2,1.3285823E-2,2.0633915E-1],"categories":[],"categories_nodes":[],"categories_segments":[],"categories_sizes":[],"default_left":[0,0,0,0,0,0,0,0,0,0,0,0,0,0,0,0,0,0,0,0,0,0,0,0,0,0,0,0,0,0,0,0,0,0,0,0,0,0,0,0,0,0,0,0,0,0,0,0,0,0,0,0,0,0,0,0,0,0,0,0,0,0,0,0,0,0,0,0,0,0,0,0,0,0,0,0,0,0,0,0,0,0,0,0,0,0,0,0,0,0,0,0,0,0,0,0,0,0,0,0,0,0,0,0,0,0,0,0,0,0,0,0,0,0,0,0,0,0,0,0,0,0,0,0,0,0,0],"id":5,"left_children":[1,3,5,7,9,11,13,15,17,19,21,23,25,27,29,31,33,35,37,39,41,43,45,47,49,51,53,55,57,59,61,63,65,67,69,71,73,75,77,79,81,83,85,87,89,91,93,95,97,99,101,103,105,107,109,111,113,115,117,119,121,123,125,-1,-1,-1,-1,-1,-1,-1,-1,-1,-1,-1,-1,-1,-1,-1,-1,-1,-1,-1,-1,-1,-1,-1,-1,-1,-1,-1,-1,-1,-1,-1,-1,-1,-1,-1,-1,-1,-1,-1,-1,-1,-1,-1,-1,-1,-1,-1,-1,-1,-1,-1,-1,-1,-1,-1,-1,-1,-1,-1,-1,-1,-1,-1,-1],"loss_changes":[3.3277184E5,5.1566266E4,2.460526E5,3.815195E4,2.0067516E4,9.176422E4,6.229815E4,1.9385855E4,1.8926047E4,1.2772527E4,2.1300484E4,6.4747312E4,4.607697E4,1.07201555E5,2.673439E4,1.2403986E4,7.5258735E3,9.094586E3,9.74568E4,2.3755342E3,3.5599297E3,2.5276094E3,5.12966E3,3.9239656E4,1.4674097E5,3.173443E4,2.8883473E4,6.632642E4,1.4857672E4,1.3169215E4,1.9004129E4,3.8511565E3,3.95413E4,4.3501904E3,2.269871E4,6.579086E3,2.0041545E3,5.5841143E3,2.0615872E5,1.9954508E3,1.3387477E3,1.363466E3,3.0750586E3,9.822617E2,2.7794531E3,9.744438E3,2.8526602E3,1.1557406E4,5.481517E4,7.13872E4,1.4628887E3,8.104188E4,1.5613414E4,2.0507373E4,2.5156875E4,1.8618676E4,2.169736E4,2.6239985E3,6.9559375E3,1.3669541E4,1.0515516E4,3.049832E3,1.6918566E4,0E0,0E0,0E0,0E0,0E0,0E0,0E0,0E0,0E0,0E0,0E0,0E0,0E0,0E0,0E0,0E0,0E0,0E0,0E0,0E0,0E0,0E0,0E0,0E0,0E0,0E0,0E0,0E0,0E0,0E0,0E0,0E0,0E0,0E0,0E0,0E0,0E0,0E0,0E0,0E0,0E0,0E0,0E0,0E0,0E0,0E0,0E0,0E0,0E0,0E0,0E0,0E0,0E0,0E0,0E0,0E0,0E0,0E0,0E0,0E0,0E0,0E0,0E0,0E0],"parents":[2147483647,0,0,1,1,2,2,3,3,4,4,5,5,6,6,7,7,8,8,9,9,10,10,11,11,12,12,13,13,14,14,15,15,16,16,17,17,18,18,19,19,20,20,21,21,22,22,23,23,24,24,25,25,26,26,27,27,28,28,29,29,30,30,31,31,32,32,33,33,34,34,35,35,36,36,37,37,38,38,39,39,40,40,41,41,42,42,43,43,44,44,45,45,46,46,47,47,48,48,49,49,50,50,51,51,52,52,53,53,54,54,55,55,56,56,57,57,58,58,59,59,60,60,61,61,62,62],"right_children":[2,4,6,8,10,12,14,16,18,20,22,24,26,28,30,32,34,36,38,40,42,44,46,48,50,52,54,56,58,60,62,64,66,68,70,72,74,76,78,80,82,84,86,88,90,92,94,96,98,100,102,104,106,108,110,112,114,116,118,120,122,124,126,-1,-1,-1,-1,-1,-1,-1,-1,-1,-1,-1,-1,-1,-1,-1,-1,-1,-1,-1,-1,-1,-1,-1,-1,-1,-1,-1,-1,-1,-1,-1,-1,-1,-1,-1,-1,-1,-1,-1,-1,-1,-1,-1,-1,-1,-1,-1,-1,-1,-1,-1,-1,-1,-1,-1,-1,-1,-1,-1,-1,-1,-1,-1,-1],"split_conditions":[7E0,2E0,2E0,-2.419219E-1,2.3E0,-4.848096E-1,3E0,5.4392557E8,1.3365E4,4.130958E9,3E0,9.75E0,4.1E1,2.6E0,4.1E1,7.236045E7,1.3365E4,9.063078E-1,4.0673664E-1,2.35E2,4.08E-1,-6.946584E-1,3.2E1,2.7946288E8,1.9E1,2.21E0,1.0968E4,1.7E1,-4.2261827E-1,4.0597555E8,1E0,3.4753628E7,8.931068E7,1.5520191E11,-3.4202015E-1,1.9E0,4.32E0,3.109666E11,1.3381E4,1E0,9.9254614E-1,2E0,7.0710677E-1,5.7E0,4.68E0,-9.998477E-1,-1.001721E4,1.1E1,1.0968E4,1.3E1,1E0,4E1,8.77E0,1E0,8.23E0,1E0,1.04528464E-1,1.7E1,1E0,9.848077E-1,3.2E1,-4.6947157E-1,6.2E0,1.2586537E-1,-1.4022674E-1,1.1270156E0,1.6493088E-1,-8.226948E-2,1.7885951E-2,3.2899933E0,1.7139639E-1,-1.1564691E-1,-2.1011932E-1,-3.5994347E-2,-1.5508358E-1,1.375539E-1,-3.383356E-1,8.052607E0,2.5062887E-2,8.421005E-2,-5.944183E-2,1.31258E-1,6.3378084E-1,3.8272683E-2,-1.1665805E-1,-2.2990523E-1,-1.3959496E-1,-2.41553E-1,-4.6746694E-2,-2.9483798E-1,-3.7536412E-1,1.9447178E0,-7.6462045E-2,-3.1064767E-2,-2.0823593E-1,6.124336E-1,3.719576E-1,1.1843987E-1,4.2901477E-1,2.240136E0,1.0912899E1,9.227695E-1,3.0587152E-1,3.2841298E-1,1.9620793E0,1.5035945E-1,1.2415804E0,8.226118E-2,-2.9906416E-2,1.4447878E-1,1.2931865E0,-2.6114056E-1,-2.7012784E-2,7.781607E-2,3.1188685E-1,-1.1903421E-1,-1.2011844E-2,-2.8724724E-1,-1.9196115E-1,8.797876E-2,3.8513663E-1,6.672415E-1,-7.6460265E-2,-1.4993939E-1,-5.873984E-2,1.3285823E-2,2.0633915E-1],"split_indices":[10,12,12,6,3,6,12,1,0,1,12,3,0,3,0,1,0,6,5,0,3,5,0,1,0,3,0,10,5,1,11,1,1,1,4,3,3,1,0,10,5,10,5,3,3,5,7,10,0,10,12,0,3,12,3,11,4,10,11,5,0,4,3,0,0,0,0,0,0,0,0,0,0,0,0,0,0,0,0,0,0,0,0,0,0,0,0,0,0,0,0,0,0,0,0,0,0,0,0,0,0,0,0,0,0,0,0,0,0,0,0,0,0,0,0,0,0,0,0,0,0,0,0,0,0,0,0],"split_type":[0,0,0,0,0,0,0,0,0,0,0,0,0,0,0,0,0,0,0,0,0,0,0,0,0,0,0,0,0,0,0,0,0,0,0,0,0,0,0,0,0,0,0,0,0,0,0,0,0,0,0,0,0,0,0,0,0,0,0,0,0,0,0,0,0,0,0,0,0,0,0,0,0,0,0,0,0,0,0,0,0,0,0,0,0,0,0,0,0,0,0,0,0,0,0,0,0,0,0,0,0,0,0,0,0,0,0,0,0,0,0,0,0,0,0,0,0,0,0,0,0,0,0,0,0,0,0],"sum_hessian":[1.10333E5,3.2439E4,7.7894E4,1.6482E4,1.5957E4,3.9708E4,3.8186E4,6.272E3,1.021E4,6.77E3,9.187E3,8.966E3,3.0742E4,2.0128E4,1.8058E4,1.58E3,4.692E3,9.929E3,2.81E2,1.99E3,4.78E3,5.044E3,4.143E3,8.915E3,5.1E1,7.058E3,2.3684E4,8.098E3,1.203E4,3.824E3,1.4234E4,5.45E2,1.035E3,4.467E3,2.25E2,7.572E3,2.357E3,2.46E2,3.5E1,1.91E3,8E1,7.39E2,4.041E3,5.72E2,4.472E3,1.007E3,3.136E3,2.213E3,6.702E3,1E1,4.1E1,1.589E3,5.469E3,1.6483E4,7.201E3,4.134E3,3.964E3,2.648E3,9.382E3,3.562E3,2.62E2,4.135E3,1.0099E4,2.52E2,2.93E2,1.2E2,9.15E2,2.617E3,1.85E3,5E0,2.2E2,3.187E3,4.385E3,1.925E3,4.32E2,1.32E2,1.14E2,1.1E1,2.4E1,2.83E2,1.627E3,6.4E1,1.6E1,1.91E2,5.48E2,2.527E3,1.514E3,4.97E2,7.5E1,2.604E3,1.868E3,5E0,1.002E3,2.47E2,2.889E3,7.72E2,1.441E3,4.658E3,2.044E3,5E0,5E0,2.2E1,1.9E1,1.51E3,7.9E1,5.437E3,3.2E1,9.115E3,7.368E3,7.154E3,4.7E1,1.193E3,2.941E3,2.038E3,1.926E3,1.81E3,8.38E2,2.693E3,6.689E3,3.121E3,4.41E2,2E2,6.2E1,1.373E3,2.762E3,8.797E3,1.302E3],"tree_param":{"num_deleted":"0","num_feature":"13","num_nodes":"127","size_leaf_vector":"1"}},{"base_weights":[6.172946E-3,-1.3542355E0,7.096652E0,-1.9272009E0,1.0398442E0,1.2176516E1,5.9232345E0,-3.5414963E0,-1.1779943E0,3.126934E0,2.7213055E-1,8.639247E0,1.7289082E1,3.5164673E0,7.5951533E0,2.0286079E-1,-3.7355573E0,-1.7670531E0,7.225938E-1,1.9907387E0,4.500836E0,-1.5420899E-1,2.485253E0,6.327141E0,1.1045428E1,1.0940193E1,2.3260088E1,2.7333634E0,5.857072E0,6.617487E0,1.2882673E1,5.086094E0,-1.3498727E0,-2.7470338E0,-4.6189284E0,-7.3514485E-1,-2.4406319E0,-8.2561904E-1,2.4402401E0,3.9903889E0,1.2132188E0,3.9347684E0,7.895505E0,-8.696227E-1,9.5556706E-1,6.2399683E0,-1.7053154E-1,5.1492867E0,1.0222796E1,8.51701E0,1.4799713E1,1.0110527E1,3.848572E1,2.1946543E1,6.9254364E1,8.536579E-1,3.922999E0,9.89316E0,4.258374E0,5.2277927E0,1.06114435E1,1.9065979E1,6.384167E0,3.1384528E-1,-1.7484872E-1,-4.9045604E-2,-3.753328E-1,-1.7248692E-2,-1.7145956E-1,-1.5378024E-1,-2.4671428E-1,3.546276E-2,-6.565899E-2,-8.105599E-2,-1.7368443E-1,2.6998743E-2,-2.2665016E-1,3.9025274E-1,5.68322E-2,1.4052896E-1,3.540041E-1,4.8676607E-1,4.8868723E-2,2.9156467E-1,1.5578201E-1,3.0091766E-1,6.3189393E-1,-1.0035205E-1,-2.9988647E-2,1.1682619E-1,2.3933692E-2,1.9329908E-1,1.2620478E0,-6.3797936E-2,9.01116E-2,4.8067388E-1,1.770178E-1,2.7643666E-1,6.678712E-1,2.6558203E-1,6.593262E-1,1.6016906E0,6.760511E-1,1.6901096E0,4.707129E-1,6.363079E-1,3.2846723E0,3.064998E-1,1.1871337E0,5.3364882E0,7.87809E-1,1.1925346E-1,-2.6974028E-2,4.4624257E-1,1.5163776E-1,3.2937616E-1,5.43274E-1,1.2330741E-1,3.0503094E-1,1.990623E-1,3.4691802E-1,4.5267048E-1,9.280993E-1,7.389874E-1,3.1555355E0,4.482358E-1,1.1416024E-1],"categories":[],"categories_nodes":[],"categories_segments":[],"categories_sizes":[],"default_left":[0,0,0,0,0,0,0,0,0,0,0,0,0,0,0,0,0,0,0,0,0,0,0,0,0,0,0,0,0,0,0,0,0,0,0,0,0,0,0,0,0,0,0,0,0,0,0,0,0,0,0,0,0,0,0,0,0,0,0,0,0,0,0,0,0,0,0,0,0,0,0,0,0,0,0,0,0,0,0,0,0,0,0,0,0,0,0,0,0,0,0,0,0,0,0,0,0,0,0,0,0,0,0,0,0,0,0,0,0,0,0,0,0,0,0,0,0,0,0,0,0,0,0,0,0,0,0],"id":6,"left_children":[1,3,5,7,9,11,13,15,17,19,21,23,25,27,29,31,33,35,37,39,41,43,45,47,49,51,53,55,57,59,61,63,65,67,69,71,73,75,77,79,81,83,85,87,89,91,93,95,97,99,101,103,105,107,109,111,113,115,117,119,121,123,125,-1,-1,-1,-1,-1,-1,-1,-1,-1,-1,-1,-1,-1,-1,-1,-1,-1,-1,-1,-1,-1,-1,-1,-1,-1,-1,-1,-1,-1,-1,-1,-1,-1,-1,-1,-1,-1,-1,-1,-1,-1,-1,-1,-1,-1,-1,-1,-1,-1,-1,-1,-1,-1,-1,-1,-1,-1,-1,-1,-1,-1,-1,-1,-1],"loss_changes":[1.0646135E6,1.27026484E5,1.05833375E5,9.036525E4,2.865285E4,6.0126344E4,5.8058562E4,1.7211062E4,5.7139055E4,7.4979883E3,1.233719E4,1.0901031E4,5.1377906E4,1.0833148E4,4.3942844E4,8.863062E3,1.9650781E4,2.7078867E4,3.2115508E4,4.090416E3,4.1503633E3,8.7056875E3,2.1061328E4,4.572582E3,9.034125E3,1.4739977E4,4.0831438E4,9.918512E3,9.526906E3,3.985175E4,5.3240297E4,2.9042207E3,2.0075554E3,1.7415312E4,5.771672E3,1.2849414E4,1.9951328E4,3.2161238E4,4.0029203E4,2.6666514E3,3.8052566E3,2.882207E3,2.6836094E3,2.0451123E3,2.829411E3,3.9372008E4,2.7020637E3,5.5396406E3,3.354543E3,8.596156E3,8.0952266E3,1.0305047E4,1.2480295E4,1.9257531E4,3.641078E4,3.6729854E3,1.2071375E4,1.2783594E3,3.4979844E3,1.1350328E4,2.2810203E4,1.2744164E5,6.8477266E3,0E0,0E0,0E0,0E0,0E0,0E0,0E0,0E0,0E0,0E0,0E0,0E0,0E0,0E0,0E0,0E0,0E0,0E0,0E0,0E0,0E0,0E0,0E0,0E0,0E0,0E0,0E0,0E0,0E0,0E0,0E0,0E0,0E0,0E0,0E0,0E0,0E0,0E0,0E0,0E0,0E0,0E0,0E0,0E0,0E0,0E0,0E0,0E0,0E0,0E0,0E0,0E0,0E0,0E0,0E0,0E0,0E0,0E0,0E0,0E0,0E0,0E0,0E0,0E0],"parents":[2147483647,0,0,1,1,2,2,3,3,4,4,5,5,6,6,7,7,8,8,9,9,10,10,11,11,12,12,13,13,14,14,15,15,16,16,17,17,18,18,19,19,20,20,21,21,22,22,23,23,24,24,25,25,26,26,27,27,28,28,29,29,30,30,31,31,32,32,33,33,34,34,35,35,36,36,37,37,38,38,39,39,40,40,41,41,42,42,43,43,44,44,45,45,46,46,47,47,48,48,49,49,50,50,51,51,52,52,53,53,54,54,55,55,56,56,57,57,58,58,59,59,60,60,61,61,62,62],"right_children":[2,4,6,8,10,12,14,16,18,20,22,24,26,28,30,32,34,36,38,40,42,44,46,48,50,52,54,56,58,60,62,64,66,68,70,72,74,76,78,80,82,84,86,88,90,92,94,96,98,100,102,104,106,108,110,112,114,116,118,120,122,124,126,-1,-1,-1,-1,-1,-1,-1,-1,-1,-1,-1,-1,-1,-1,-1,-1,-1,-1,-1,-1,-1,-1,-1,-1,-1,-1,-1,-1,-1,-1,-1,-1,-1,-1,-1,-1,-1,-1,-1,-1,-1,-1,-1,-1,-1,-1,-1,-1,-1,-1,-1,-1,-1,-1,-1,-1,-1,-1,-1,-1,-1,-1,-1,-1],"split_conditions":[2.05E1,1.68E1,1.7903318E8,6E0,4.7517555E8,7.236045E7,2.32E1,5.035E0,2.5881904E-1,1.85E1,2.3672655E11,2.41E1,2.43E1,1.8E1,2.2925368E11,2E0,2E0,3.2596503E9,1.7E1,1E1,9.063078E-1,1.88E1,3.0864163E11,1.8E1,1E0,3.7343216E1,3.387062E1,1E0,-3.7460658E-1,6.946584E-1,3.0864163E11,1.0284602E1,2.1752605E3,-6.293204E-1,1E0,1E1,6.123234E-17,1.1E1,8.9E0,1E0,-8.910065E-1,-5.163839E-1,1.8E1,6E0,-4.0673664E-1,3.0749655E11,1.6E1,1.1E1,3.0531308E-1,4.2261827E-1,-8.09017E-1,-3.293991E1,2.22E1,-8.746197E-1,1.6E1,1E1,1E1,1.9E1,1E0,1E0,1.8E1,3.0749655E11,2.973082E-1,3.1384528E-1,-1.7484872E-1,-4.9045604E-2,-3.753328E-1,-1.7248692E-2,-1.7145956E-1,-1.5378024E-1,-2.4671428E-1,3.546276E-2,-6.565899E-2,-8.105599E-2,-1.7368443E-1,2.6998743E-2,-2.2665016E-1,3.9025274E-1,5.68322E-2,1.4052896E-1,3.540041E-1,4.8676607E-1,4.8868723E-2,2.9156467E-1,1.5578201E-1,3.0091766E-1,6.3189393E-1,-1.0035205E-1,-2.9988647E-2,1.1682619E-1,2.3933692E-2,1.9329908E-1,1.2620478E0,-6.3797936E-2,9.01116E-2,4.8067388E-1,1.770178E-1,2.7643666E-1,6.678712E-1,2.6558203E-1,6.593262E-1,1.6016906E0,6.760511E-1,1.6901096E0,4.707129E-1,6.363079E-1,3.2846723E0,3.064998E-1,1.1871337E0,5.3364882E0,7.87809E-1,1.1925346E-1,-2.6974028E-2,4.4624257E-1,1.5163776E-1,3.2937616E-1,5.43274E-1,1.2330741E-1,3.0503094E-1,1.990623E-1,3.4691802E-1,4.5267048E-1,9.280993E-1,7.389874E-1,3.1555355E0,4.482358E-1,1.1416024E-1],"split_indices":[9,9,1,10,1,1,9,9,4,9,1,9,9,10,1,10,12,1,10,10,6,9,1,10,12,7,7,2,4,6,1,7,7,6,10,10,5,10,9,2,6,6,10,10,4,1,10,10,6,6,4,7,9,6,10,10,10,10,12,12,10,1,4,0,0,0,0,0,0,0,0,0,0,0,0,0,0,0,0,0,0,0,0,0,0,0,0,0,0,0,0,0,0,0,0,0,0,0,0,0,0,0,0,0,0,0,0,0,0,0,0,0,0,0,0,0,0,0,0,0,0,0,0,0,0,0,0],"split_type":[0,0,0,0,0,0,0,0,0,0,0,0,0,0,0,0,0,0,0,0,0,0,0,0,0,0,0,0,0,0,0,0,0,0,0,0,0,0,0,0,0,0,0,0,0,0,0,0,0,0,0,0,0,0,0,0,0,0,0,0,0,0,0,0,0,0,0,0,0,0,0,0,0,0,0,0,0,0,0,0,0,0,0,0,0,0,0,0,0,0,0,0,0,0,0,0,0,0,0,0,0,0,0,0,0,0,0,0,0,0,0,0,0,0,0,0,0,0,0,0,0,0,0,0,0,0,0],"sum_hessian":[1.10367E5,9.2601E4,1.7766E4,7.4719E4,1.7882E4,3.332E3,1.4434E4,2.3684E4,5.1035E4,4.808E3,1.3074E4,1.971E3,1.361E3,5.918E3,8.516E3,1.167E3,2.2517E4,3.896E4,1.2075E4,2.633E3,2.175E3,1.0963E4,2.111E3,1.007E3,9.64E2,6.61E2,7E2,4.436E3,1.482E3,7.189E3,1.327E3,2.81E2,8.86E2,1.0628E4,1.1889E4,1.5388E4,2.3572E4,6.351E3,5.724E3,7.36E2,1.897E3,1.866E3,3.09E2,6.666E3,4.297E3,8.74E2,1.237E3,7.75E2,2.32E2,5.78E2,3.86E2,6.43E2,1.8E1,6.82E2,1.8E1,1.72E3,2.716E3,4.19E2,1.063E3,5.335E3,1.854E3,6.79E2,6.48E2,2.47E2,3.4E1,8.37E2,4.9E1,2.351E3,8.277E3,2.019E3,9.87E3,4.398E3,1.099E4,1.3146E4,1.0426E4,4.642E3,1.709E3,1.118E3,4.606E3,5.34E2,2.02E2,5E1,1.847E3,5.61E2,1.305E3,2.23E2,8.6E1,1.277E3,5.389E3,1.102E3,3.195E3,7.78E2,9.6E1,7.93E2,4.44E2,2.04E2,5.71E2,9.4E1,1.38E2,3.44E2,2.34E2,2.5E1,3.61E2,1.7E1,6.26E2,1E1,8E0,7E1,6.12E2,1E1,8E0,8.19E2,9.01E2,4.09E2,2.307E3,9.7E1,3.22E2,5.4E2,5.23E2,3.088E3,2.247E3,1.552E3,3.02E2,6.2E2,5.9E1,3.97E2,2.51E2],"tree_param":{"num_deleted":"0","num_feature":"13","num_nodes":"127","size_leaf_vector":"1"}},{"base_weights":[2.7852373E-3,-1.2644861E0,6.6694713E0,-1.7968434E0,9.316975E-1,1.1284729E1,5.60045E0,-2.1602373E0,-1.6076916E-1,3.0573437E0,1.5612945E-1,8.077545E0,1.6071327E1,4.997294E0,1.5853889E1,-1.3588808E0,-2.8554723E0,1.7683818E0,-8.599032E-1,1.059682E0,3.8770661E0,-1.5660046E0,8.7534076E-1,5.5240397E0,9.511681E0,1.0701913E1,2.0998518E1,3.066774E0,6.2218723E0,2.2894571E1,4.2226896E0,-3.940902E-1,-1.916967E0,-1.1987548E0,-3.5272055E0,2.60831E0,-2.0967274E0,1.5788511E0,-1.3608888E0,5.844299E0,4.5502615E-1,4.819086E0,1.9554161E0,-2.2103395E0,-2.9281542E-1,6.494512E-1,7.442208E0,4.431318E0,8.759376E0,7.3488064E0,1.2454327E1,2.4518711E1,9.586893E0,1.9741373E1,6.975326E1,1.7972132E0,4.3046117E0,4.9381633E0,9.792518E0,1.7255165E1,5.32844E1,2.997841E0,3.3471313E1,-6.9035284E-2,3.8277576E-4,-1.18476085E-1,-4.4830587E-2,-1.24670185E-1,8.353066E-2,4.39855E-2,-1.8772203E-1,1.1391162E-1,3.2717198E-1,-1.18948184E-1,2.2257288E-1,-1.2021339E-2,1.5230708E-1,-1.2680483E-2,-1.2421512E-1,4.422245E-1,5.8990624E-2,6.494214E-2,-1.1018322E-1,6.870465E-1,2.1195622E-1,3.7410885E-2,1.8889822E-1,6.8006213E-3,-1.294863E-1,3.351483E-1,-2.5603062E-2,-7.3909173E-3,9.4754286E-2,1.2872093E0,-1.3509397E-1,1.7353408E-1,5.300283E-1,8.1595343E-1,4.0117517E-1,2.1165653E-1,5.31795E-1,7.389578E-1,3.695973E-1,1.9187965E0,9.045829E-1,4.5284048E-1,2.1459138E0,1.0696443E0,3.2108143E-1,4.7071066E-1,5.0904818E0,1.2416354E0,8.492281E-2,1.7900605E-1,3.273175E-1,2.0727222E0,2.4326217E-1,8.747156E-1,4.4719735E-1,3.8862592E-1,1.0539709E0,1.6105226E0,3.949469E0,-1.2484845E-1,3.0188733E-1,2.0535362E0,1.1087959E0],"categories":[],"categories_nodes":[],"categories_segments":[],"categories_sizes":[],"default_left":[0,0,0,0,0,0,0,0,0,0,0,0,0,0,0,0,0,0,0,0,0,0,0,0,0,0,0,0,0,0,0,0,0,0,0,0,0,0,0,0,0,0,0,0,0,0,0,0,0,0,0,0,0,0,0,0,0,0,0,0,0,0,0,0,0,0,0,0,0,0,0,0,0,0,0,0,0,0,0,0,0,0,0,0,0,0,0,0,0,0,0,0,0,0,0,0,0,0,0,0,0,0,0,0,0,0,0,0,0,0,0,0,0,0,0,0,0,0,0,0,0,0,0,0,0,0,0],"id":7,"left_children":[1,3,5,7,9,11,13,15,17,19,21,23,25,27,29,31,33,35,37,39,41,43,45,47,49,51,53,55,57,59,61,63,65,67,69,71,73,75,77,79,81,83,85,87,89,91,93,95,97,99,101,103,105,107,109,111,113,115,117,119,121,123,125,-1,-1,-1,-1,-1,-1,-1,-1,-1,-1,-1,-1,-1,-1,-1,-1,-1,-1,-1,-1,-1,-1,-1,-1,-1,-1,-1,-1,-1,-1,-1,-1,-1,-1,-1,-1,-1,-1,-1,-1,-1,-1,-1,-1,-1,-1,-1,-1,-1,-1,-1,-1,-1,-1,-1,-1,-1,-1,-1,-1,-1,-1,-1,-1],"loss_changes":[9.32613E5,1.08447766E5,8.692975E4,4.438739E4,2.983558E4,5.0760375E4,8.846941E4,3.403125E4,1.8303857E4,7.918254E3,1.6426158E4,7.223992E3,3.49355E4,3.1952656E4,6.5007125E4,1.5280617E4,3.6397812E4,1.1725024E4,1.2172307E4,4.073643E3,6.199672E3,3.2045E3,1.387225E4,2.4960098E3,7.9978438E3,9.593961E3,4.1036844E4,8.244266E3,3.7876906E4,8.3913984E4,1.0683027E4,4.1230356E3,8.30043E3,3.5064676E4,2.3309031E4,3.837627E3,1.2026372E3,4.533389E3,1.027923E4,2.2006724E3,2.811658E3,1.1847883E4,2.4833735E3,2.309462E3,2.0188405E3,8.982928E3,5.7808836E4,3.1516152E3,8.703994E2,7.482492E3,6.210797E3,3.491586E3,1.007102E4,1.4733094E4,3.1923797E4,5.8589453E3,4.2934688E3,1.60091875E4,1.41366875E4,1.5030797E4,3.9167047E4,4.8591504E3,1.192793E2,0E0,0E0,0E0,0E0,0E0,0E0,0E0,0E0,0E0,0E0,0E0,0E0,0E0,0E0,0E0,0E0,0E0,0E0,0E0,0E0,0E0,0E0,0E0,0E0,0E0,0E0,0E0,0E0,0E0,0E0,0E0,0E0,0E0,0E0,0E0,0E0,0E0,0E0,0E0,0E0,0E0,0E0,0E0,0E0,0E0,0E0,0E0,0E0,0E0,0E0,0E0,0E0,0E0,0E0,0E0,0E0,0E0,0E0,0E0,0E0,0E0,0E0,0E0,0E0],"parents":[2147483647,0,0,1,1,2,2,3,3,4,4,5,5,6,6,7,7,8,8,9,9,10,10,11,11,12,12,13,13,14,14,15,15,16,16,17,17,18,18,19,19,20,20,21,21,22,22,23,23,24,24,25,25,26,26,27,27,28,28,29,29,30,30,31,31,32,32,33,33,34,34,35,35,36,36,37,37,38,38,39,39,40,40,41,41,42,42,43,43,44,44,45,45,46,46,47,47,48,48,49,49,50,50,51,51,52,52,53,53,54,54,55,55,56,56,57,57,58,58,59,59,60,60,61,61,62,62],"right_children":[2,4,6,8,10,12,14,16,18,20,22,24,26,28,30,32,34,36,38,40,42,44,46,48,50,52,54,56,58,60,62,64,66,68,70,72,74,76,78,80,82,84,86,88,90,92,94,96,98,100,102,104,106,108,110,112,114,116,118,120,122,124,126,-1,-1,-1,-1,-1,-1,-1,-1,-1,-1,-1,-1,-1,-1,-1,-1,-1,-1,-1,-1,-1,-1,-1,-1,-1,-1,-1,-1,-1,-1,-1,-1,-1,-1,-1,-1,-1,-1,-1,-1,-1,-1,-1,-1,-1,-1,-1,-1,-1,-1,-1,-1,-1,-1,-1,-1,-1,-1,-1,-1,-1,-1,-1,-1],"split_conditions":[2.05E1,1.68E1,1.7903318E8,3.9073113E-1,4.7517555E8,7.236045E7,1.3146E4,-2.2495106E-1,8.9E0,1E0,1E0,2.26E1,2.43E1,2.3E1,3.0864163E11,7.7186374E8,2E0,3E0,4.7E1,-7.193398E-1,4.4E1,1.0865E4,1.3365E4,8.1915206E-1,1E0,-2.286897E1,3.387062E1,4.3837115E-1,6.946584E-1,3.0749655E11,3.52E1,1E0,1.124E4,-2.4492937E-16,5.035E0,3.4187683E11,3.8153155E11,-6.293204E-1,2E0,2E0,-3.5836795E-1,-2.5441442E1,1.87E1,-7.431448E-1,-1.2121E4,1.88E1,3.0864163E11,4.2E1,2.06E1,4.2261827E-1,1.5643446E-1,2.2E1,3.8964767E1,6.4278764E-1,-5.150381E-1,2.8E1,2.22E1,2.8E1,5.4392557E8,-8.683633E-1,-2.2495106E-1,1.3381E4,-2.7563736E-1,-6.9035284E-2,3.8277576E-4,-1.18476085E-1,-4.4830587E-2,-1.24670185E-1,8.353066E-2,4.39855E-2,-1.8772203E-1,1.1391162E-1,3.2717198E-1,-1.18948184E-1,2.2257288E-1,-1.2021339E-2,1.5230708E-1,-1.2680483E-2,-1.2421512E-1,4.422245E-1,5.8990624E-2,6.494214E-2,-1.1018322E-1,6.870465E-1,2.1195622E-1,3.7410885E-2,1.8889822E-1,6.8006213E-3,-1.294863E-1,3.351483E-1,-2.5603062E-2,-7.3909173E-3,9.4754286E-2,1.2872093E0,-1.3509397E-1,1.7353408E-1,5.300283E-1,8.1595343E-1,4.0117517E-1,2.1165653E-1,5.31795E-1,7.389578E-1,3.695973E-1,1.9187965E0,9.045829E-1,4.5284048E-1,2.1459138E0,1.0696443E0,3.2108143E-1,4.7071066E-1,5.0904818E0,1.2416354E0,8.492281E-2,1.7900605E-1,3.273175E-1,2.0727222E0,2.4326217E-1,8.747156E-1,4.4719735E-1,3.8862592E-1,1.0539709E0,1.6105226E0,3.949469E0,-1.2484845E-1,3.0188733E-1,2.0535362E0,1.1087959E0],"split_indices":[9,9,1,4,1,1,0,5,9,11,11,9,9,9,1,1,12,12,0,6,0,0,0,6,12,7,7,6,6,1,9,11,0,4,9,1,1,5,12,12,5,7,9,6,7,9,1,0,9,6,4,9,7,4,4,0,9,0,1,5,5,0,4,0,0,0,0,0,0,0,0,0,0,0,0,0,0,0,0,0,0,0,0,0,0,0,0,0,0,0,0,0,0,0,0,0,0,0,0,0,0,0,0,0,0,0,0,0,0,0,0,0,0,0,0,0,0,0,0,0,0,0,0,0,0,0,0],"split_type":[0,0,0,0,0,0,0,0,0,0,0,0,0,0,0,0,0,0,0,0,0,0,0,0,0,0,0,0,0,0,0,0,0,0,0,0,0,0,0,0,0,0,0,0,0,0,0,0,0,0,0,0,0,0,0,0,0,0,0,0,0,0,0,0,0,0,0,0,0,0,0,0,0,0,0,0,0,0,0,0,0,0,0,0,0,0,0,0,0,0,0,0,0,0,0,0,0,0,0,0,0,0,0,0,0,0,0,0,0,0,0,0,0,0,0,0,0,0,0,0,0,0,0,0,0,0,0],"sum_hessian":[1.10386E5,9.2755E4,1.7631E4,7.4658E4,1.8097E4,3.314E3,1.4317E4,6.1089E4,1.3569E4,4.837E3,1.326E4,1.986E3,1.328E3,1.3523E4,7.94E2,2.838E4,3.2709E4,3.609E3,9.96E3,1.408E3,3.429E3,3.906E3,9.354E3,7.16E2,1.27E3,6.37E2,6.91E2,5.25E3,8.273E3,4.94E2,3E2,1.0401E4,1.7979E4,9.437E3,2.3272E4,2.965E3,6.44E2,1.697E3,8.263E3,1.57E2,1.251E3,2.3E3,1.129E3,2.593E3,1.313E3,9.044E3,3.1E2,5.37E2,1.79E2,7.34E2,5.36E2,4.6E1,5.91E2,6.75E2,1.6E1,2.593E3,2.657E3,6.087E3,2.186E3,4.18E2,7.6E1,2.89E2,1.1E1,3.009E3,7.392E3,1.2454E4,5.525E3,6.503E3,2.934E3,1.141E3,2.2131E4,2.737E3,2.28E2,6.18E2,2.6E1,7.58E2,9.39E2,4.162E3,4.101E3,9.5E1,6.2E1,9.5E2,3.01E2,1.39E2,2.161E3,6.8E2,4.49E2,3.61E2,2.232E3,3.9E1,1.274E3,5.515E3,3.529E3,1.1E2,2E2,4.66E2,7.1E1,1.4E1,1.65E2,3.78E2,3.56E2,3.66E2,1.7E2,1.3E1,3.3E1,5.83E2,8E0,6E2,7.5E1,6E0,1E1,1E1,2.583E3,2.01E3,6.47E2,1.1E1,6.076E3,2.15E2,1.971E3,1.21E2,2.97E2,4.3E1,3.3E1,1.03E2,1.86E2,5E0,6E0],"tree_param":{"num_deleted":"0","num_feature":"13","num_nodes":"127","size_leaf_vector":"1"}},{"base_weights":[1.8035652E-2,-1.3922329E0,5.574352E0,-2.967194E0,-7.338486E-1,3.7011945E0,8.776516E0,-3.4770837E0,-9.9360764E-1,-1.338491E0,4.538407E-1,6.0868125E0,2.7686036E0,8.095894E0,2.268614E1,-1.1069201E-1,-3.707641E0,-1.3035749E0,1.028488E1,-2.7054157E0,-7.496249E-1,-5.5048877E-1,1.6524618E0,5.16667E0,1.0213308E1,1.6661712E0,4.925191E0,1.4644436E1,6.4188614E0,3.0303778E1,8.516323E0,3.1822765E0,-2.2866328E0,-2.1657043E0,-4.051413E0,1.2120994E0,-2.177206E0,2.5515768E1,-1.6883404E0,-3.7464843E0,-1.0741787E0,9.147351E-1,-1.2730526E0,6.8885046E-1,-3.4267488E0,6.4466743E0,7.202137E-1,7.790714E0,4.0265718E0,1.6480541E1,7.916153E0,-4.3504232E-1,2.462886E0,7.6738915E0,3.8706102E0,9.642957E0,2.116987E1,5.1630483E0,1.0950206E1,2.1255733E1,6.434718E1,6.1680217E0,1.7320417E0,2.085317E-1,-1.7825009E-1,-8.960029E-2,-3.1570092E-1,3.6280483E-3,-1.3607678E-1,-1.534582E-1,-2.263064E-1,-7.6071225E-2,1.4352022E-1,-1.395484E-1,-5.7418477E-2,7.872275E-2,3.092179E0,4.0500483E-1,-1.6711196E-1,-1.261271E-1,-2.3434971E-1,-1.2161684E-2,-1.2708075E-1,-1.23120425E-2,2.0199032E-1,-2.386844E-2,-1.4303295E-1,-7.149794E-2,1.20055534E-1,-9.068424E-2,-2.0972128E-1,4.416987E-1,2.0147668E-1,9.301486E-2,-8.470761E-2,2.9347986E-1,5.2647346E-1,7.866275E-2,2.4828131E-1,4.9481755E-1,9.549827E-1,2.46207E-1,5.1017946E-1,-6.178859E-2,9.526494E-2,1.6986202E-1,3.7527658E-2,1.2922591E0,3.2113168E-1,1.509076E-1,3.320885E-1,2.9129827E-1,6.484437E-1,9.863638E-1,4.062362E0,4.547319E-1,2.1793555E-1,7.7899665E-1,4.4084683E-1,5.405284E-1,1.2843331E0,6.6976017E-1,4.0493855E0,2.266858E-1,7.5665617E-1],"categories":[],"categories_nodes":[],"categories_segments":[],"categories_sizes":[],"default_left":[0,0,0,0,0,0,0,0,0,0,0,0,0,0,0,0,0,0,0,0,0,0,0,0,0,0,0,0,0,0,0,0,0,0,0,0,0,0,0,0,0,0,0,0,0,0,0,0,0,0,0,0,0,0,0,0,0,0,0,0,0,0,0,0,0,0,0,0,0,0,0,0,0,0,0,0,0,0,0,0,0,0,0,0,0,0,0,0,0,0,0,0,0,0,0,0,0,0,0,0,0,0,0,0,0,0,0,0,0,0,0,0,0,0,0,0,0,0,0,0,0,0,0,0,0],"id":8,"left_children":[1,3,5,7,9,11,13,15,17,19,21,23,25,27,29,31,33,35,37,39,41,43,45,47,49,51,53,55,57,59,61,63,65,67,69,71,73,75,77,79,81,83,85,87,89,91,93,95,97,99,101,103,105,107,109,111,113,115,117,119,121,123,-1,-1,-1,-1,-1,-1,-1,-1,-1,-1,-1,-1,-1,-1,-1,-1,-1,-1,-1,-1,-1,-1,-1,-1,-1,-1,-1,-1,-1,-1,-1,-1,-1,-1,-1,-1,-1,-1,-1,-1,-1,-1,-1,-1,-1,-1,-1,-1,-1,-1,-1,-1,-1,-1,-1,-1,-1,-1,-1,-1,-1,-1,-1],"loss_changes":[8.669166E5,9.149441E4,1.3430219E5,2.6172734E4,4.468752E4,3.142411E4,7.806275E4,1.6043297E4,1.868884E4,3.3189484E4,2.5272504E4,1.5024969E4,2.4151875E4,8.645609E4,4.129903E4,9.508471E3,1.02460625E4,1.1431051E4,2.6120957E4,2.10795E4,2.5109217E4,4.0721492E4,4.2771945E4,9.6885625E3,1.027843E4,1.1260855E4,9.933219E3,5.2210625E4,3.565717E4,7.56388E4,8.1296943E3,3.5359536E3,1.5803364E3,4.390617E3,7.3618594E3,6.083142E3,2.4342324E3,5.4695973E4,1.3383881E3,8.711445E3,5.89864E3,2.5020598E4,2.7696277E4,2.8969008E4,4.2521875E3,8.954746E3,2.2062316E4,5.1102227E3,5.2148984E3,3.1392188E3,3.5839414E3,3.469218E3,7.800283E3,2.1479613E4,5.852625E3,1.1489586E4,5.8717656E4,1.5506336E4,1.33045E4,8.932391E3,4.3004297E4,1.7775068E3,0E0,0E0,0E0,0E0,0E0,0E0,0E0,0E0,0E0,0E0,0E0,0E0,0E0,0E0,0E0,0E0,0E0,0E0,0E0,0E0,0E0,0E0,0E0,0E0,0E0,0E0,0E0,0E0,0E0,0E0,0E0,0E0,0E0,0E0,0E0,0E0,0E0,0E0,0E0,0E0,0E0,0E0,0E0,0E0,0E0,0E0,0E0,0E0,0E0,0E0,0E0,0E0,0E0,0E0,0E0,0E0,0E0,0E0,0E0,0E0,0E0,0E0,0E0],"parents":[2147483647,0,0,1,1,2,2,3,3,4,4,5,5,6,6,7,7,8,8,9,9,10,10,11,11,12,12,13,13,14,14,15,15,16,16,17,17,18,18,19,19,20,20,21,21,22,22,23,23,24,24,25,25,26,26,27,27,28,28,29,29,30,30,31,31,32,32,33,33,34,34,35,35,36,36,37,37,38,38,39,39,40,40,41,41,42,42,43,43,44,44,45,45,46,46,47,47,48,48,49,49,50,50,51,51,52,52,53,53,54,54,55,55,56,56,57,57,58,58,59,59,60,60,61,61],"right_children":[2,4,6,8,10,12,14,16,18,20,22,24,26,28,30,32,34,36,38,40,42,44,46,48,50,52,54,56,58,60,62,64,66,68,70,72,74,76,78,80,82,84,86,88,90,92,94,96,98,100,102,104,106,108,110,112,114,116,118,120,122,124,-1,-1,-1,-1,-1,-1,-1,-1,-1,-1,-1,-1,-1,-1,-1,-1,-1,-1,-1,-1,-1,-1,-1,-1,-1,-1,-1,-1,-1,-1,-1,-1,-1,-1,-1,-1,-1,-1,-1,-1,-1,-1,-1,-1,-1,-1,-1,-1,-1,-1,-1,-1,-1,-1,-1,-1,-1,-1,-1,-1,-1,-1,-1],"split_conditions":[1.93E1,6E0,2.43E1,1.49E1,1.04528464E-1,5.4392557E8,1.3163E4,5.3E0,1.3365E4,1E0,1.7E1,1.9E1,1.1012E4,1.7903318E8,3.0864163E11,3E0,1.0258554E8,4.7517555E8,3.0864163E11,1.7E1,1E1,1.1E1,9.2E0,1.1E1,-3.4202015E-1,1E0,-4.3186536E-1,7.236045E7,7.313537E-1,3.0749655E11,3.52E1,1.1628685E1,9.488032E1,-6.56059E-1,2E0,-8.09017E-1,1.0458E4,3.0749655E11,-9.5281523E-1,-5E-1,-1.2186934E-1,1.43E1,1.7452406E-2,1E0,7.178111E8,2.2E1,2.2E1,1E0,1E0,1E0,2.1E1,1.8E1,1.391731E-1,1.5069318E11,8.480481E-1,2.8E1,3.2708153E1,1.1E1,3.2210555E10,2.5881904E-1,1E0,6.819984E-1,1.7320417E0,2.085317E-1,-1.7825009E-1,-8.960029E-2,-3.1570092E-1,3.6280483E-3,-1.3607678E-1,-1.534582E-1,-2.263064E-1,-7.6071225E-2,1.4352022E-1,-1.395484E-1,-5.7418477E-2,7.872275E-2,3.092179E0,4.0500483E-1,-1.6711196E-1,-1.261271E-1,-2.3434971E-1,-1.2161684E-2,-1.2708075E-1,-1.23120425E-2,2.0199032E-1,-2.386844E-2,-1.4303295E-1,-7.149794E-2,1.20055534E-1,-9.068424E-2,-2.0972128E-1,4.416987E-1,2.0147668E-1,9.301486E-2,-8.470761E-2,2.9347986E-1,5.2647346E-1,7.866275E-2,2.4828131E-1,4.9481755E-1,9.549827E-1,2.46207E-1,5.1017946E-1,-6.178859E-2,9.526494E-2,1.6986202E-1,3.7527658E-2,1.2922591E0,3.2113168E-1,1.509076E-1,3.320885E-1,2.9129827E-1,6.484437E-1,9.863638E-1,4.062362E0,4.547319E-1,2.1793555E-1,7.7899665E-1,4.4084683E-1,5.405284E-1,1.2843331E0,6.6976017E-1,4.0493855E0,2.266858E-1,7.5665617E-1],"split_indices":[9,10,9,9,4,1,0,9,0,11,10,10,0,1,1,10,1,1,1,10,10,10,9,10,4,11,4,1,6,1,9,7,7,6,10,5,0,1,6,5,5,9,5,2,1,10,10,2,11,11,9,10,4,1,5,0,7,10,1,5,11,6,0,0,0,0,0,0,0,0,0,0,0,0,0,0,0,0,0,0,0,0,0,0,0,0,0,0,0,0,0,0,0,0,0,0,0,0,0,0,0,0,0,0,0,0,0,0,0,0,0,0,0,0,0,0,0,0,0,0,0,0,0,0,0],"split_type":[0,0,0,0,0,0,0,0,0,0,0,0,0,0,0,0,0,0,0,0,0,0,0,0,0,0,0,0,0,0,0,0,0,0,0,0,0,0,0,0,0,0,0,0,0,0,0,0,0,0,0,0,0,0,0,0,0,0,0,0,0,0,0,0,0,0,0,0,0,0,0,0,0,0,0,0,0,0,0,0,0,0,0,0,0,0,0,0,0,0,0,0,0,0,0,0,0,0,0,0,0,0,0,0,0,0,0,0,0,0,0,0,0,0,0,0,0,0,0,0,0,0,0,0,0],"sum_hessian":[1.10632E5,8.8237E4,2.2395E4,2.6011E4,6.2226E4,1.4131E4,8.264E3,2.067E4,5.341E3,4.1234E4,2.0992E4,3.97E3,1.0161E4,7.88E3,3.84E2,1.325E3,1.9345E4,5.199E3,1.42E2,1.2414E4,2.882E4,1.1422E4,9.57E3,3.248E3,7.22E2,6.725E3,3.436E3,1.605E3,6.275E3,2.49E2,1.35E2,5.27E2,7.98E2,3.528E3,1.5817E4,1.34E3,3.859E3,6.2E1,8E1,7.577E3,4.837E3,6.895E3,2.1925E4,7.983E3,3.439E3,1.557E3,8.013E3,9.82E2,2.266E3,1.92E2,5.3E2,1.849E3,4.876E3,9.51E2,2.485E3,9.1E2,6.95E2,4.915E3,1.36E3,1.98E2,5.1E1,1.25E2,1E1,4.6E2,6.7E1,7.12E2,8.6E1,7.02E2,2.826E3,5.156E3,1.0661E4,5.06E2,8.34E2,2.416E3,1.443E3,3.8E1,2.4E1,1.1E1,6.9E1,3.294E3,4.283E3,3.089E3,1.748E3,5.028E3,1.867E3,1.4606E4,7.319E3,3.568E3,4.415E3,1.11E3,2.329E3,7.82E2,7.75E2,5.443E3,2.57E3,5.79E2,4.03E2,6.28E2,1.638E3,5.6E1,1.36E2,2.31E2,2.99E2,1.378E3,4.71E2,3.154E3,1.722E3,6E1,8.91E2,1.902E3,5.83E2,4.25E2,4.85E2,6.8E2,1.5E1,8.33E2,4.082E3,4.27E2,9.33E2,6E1,1.38E2,1.3E1,3.8E1,1.07E2,1.8E1],"tree_param":{"num_deleted":"0","num_feature":"13","num_nodes":"125","size_leaf_vector":"1"}},{"base_weights":[6.3071144E-3,-2.2677882E0,9.49324E-1,-1.2348322E0,-3.339793E0,2.4012563E0,-5.624727E-1,5.701114E-1,-2.1784272E0,-4.050612E0,-2.547607E0,5.061536E0,1.6301119E0,-1.577058E0,5.7050633E-1,3.709924E0,-4.3733844E-1,-2.3842387E0,4.72385E0,-2.6476934E0,-4.601585E0,-4.798927E-1,-3.0875182E0,8.808446E0,3.8284974E0,1.8551178E-2,2.3093693E0,-2.6992052E0,1.3701569E-2,2.3576384E0,-7.737026E-2,-1.8631355E-1,6.166067E0,1.0624617E0,-1.1575885E0,-1.6580212E0,-3.2450047E0,-2.217238E0,4.3235237E1,-4.460816E-1,-3.008447E0,-3.8926506E0,-4.9963884E0,-9.050918E-1,7.710043E0,-3.5128355E0,-1.9424859E0,4.8754134E0,1.0988203E1,2.0884323E0,7.7761908E0,-1.2771269E0,1.045254E0,4.5710654E0,1.7593713E0,-4.9784594E0,-1.7835137E0,1.2866168E0,-2.5171049E0,1.6556045E0,5.2847733E0,-1.521871E0,5.089164E-1,1.0948228E-1,-1.2543918E-1,1.1007534E0,1.8804413E-1,4.258507E-2,1.8708766E0,6.045999E-2,-7.347522E-2,-4.1242777E-3,-1.07019864E-1,-1.0611302E-1,-1.9521968E-1,6.2096626E-2,-3.0201378E-1,5.425315E0,-3.631086E-1,-2.0574442E-1,2.194009E-2,2.1286242E-1,-1.5671407E-1,-2.2779937E-1,-1.6377942E-1,-9.504302E-2,-2.5549245E-1,8.523259E-1,-5.3777993E-2,7.591837E-2,6.416811E-1,-1.474259E-1,-2.5346813E-1,2.671661E-2,-1.5052009E-1,4.3584177E-1,2.0157458E-2,1.0208126E0,4.6296078E-1,-5.608781E-3,1.440649E-1,5.096542E-1,4.7486685E-2,-2.9326126E-2,-1.7302404E-1,8.1733376E-2,-5.9377458E-2,1.1574071E-1,3.3481643E-1,7.719159E-2,3.5576415E-1,-2.089833E-1,-2.8190318E-1,3.7281387E-3,-1.521458E-1,1.968894E-1,2.5255391E-2,-1.3724434E-1,2.7262482E-1,-1.4280232E-2,1.2235593E-1,3.974764E-1,1.22457445E-1,-1.108676E-1,-2.6481364E-2,4.410266E-1,1.836898E-2],"categories":[],"categories_nodes":[],"categories_segments":[],"categories_sizes":[],"default_left":[0,0,0,0,0,0,0,0,0,0,0,0,0,0,0,0,0,0,0,0,0,0,0,0,0,0,0,0,0,0,0,0,0,0,0,0,0,0,0,0,0,0,0,0,0,0,0,0,0,0,0,0,0,0,0,0,0,0,0,0,0,0,0,0,0,0,0,0,0,0,0,0,0,0,0,0,0,0,0,0,0,0,0,0,0,0,0,0,0,0,0,0,0,0,0,0,0,0,0,0,0,0,0,0,0,0,0,0,0,0,0,0,0,0,0,0,0,0,0,0,0,0,0,0,0,0,0],"id":9,"left_children":[1,3,5,7,9,11,13,15,17,19,21,23,25,27,29,31,33,35,37,39,41,43,45,47,49,51,53,55,57,59,61,63,65,67,69,71,73,75,77,79,81,83,85,87,89,91,93,95,97,99,101,103,105,107,109,111,113,115,117,119,121,123,125,-1,-1,-1,-1,-1,-1,-1,-1,-1,-1,-1,-1,-1,-1,-1,-1,-1,-1,-1,-1,-1,-1,-1,-1,-1,-1,-1,-1,-1,-1,-1,-1,-1,-1,-1,-1,-1,-1,-1,-1,-1,-1,-1,-1,-1,-1,-1,-1,-1,-1,-1,-1,-1,-1,-1,-1,-1,-1,-1,-1,-1,-1,-1,-1],"loss_changes":[2.3695123E5,3.586022E4,1.7144172E5,2.8096172E4,8.939047E3,8.172397E4,4.398552E4,1.7918008E4,1.540027E4,6.4614375E3,8.392594E3,4.1329906E4,3.3813055E4,3.603517E4,2.0931633E4,1.3169078E4,4.634341E3,6.570707E3,8.4031484E4,1.8762402E3,1.6632578E3,5.4324854E3,2.8966836E3,1.8944312E4,4.6268727E4,1.2186666E4,2.7022523E4,2.4696047E4,2.6906002E4,9.875549E3,1.1238177E4,2.9466372E3,3.2090291E4,1.0633922E4,2.1411943E3,4.337909E3,3.5549023E3,3.5384536E3,1.589969E5,1.0861252E3,1.8702305E3,8.6716016E2,1.3452969E3,4.5535127E3,2.423225E3,3.8024727E3,4.2786274E3,1.3602928E4,2.303986E4,8.1624355E3,3.3994375E4,6.1046978E3,6.728244E3,2.0363797E4,2.0169262E4,1.7636406E3,1.9764424E4,1.1511639E4,5.0888203E3,5.963834E3,7.007838E3,2.6425479E3,1.1100791E4,0E0,0E0,0E0,0E0,0E0,0E0,0E0,0E0,0E0,0E0,0E0,0E0,0E0,0E0,0E0,0E0,0E0,0E0,0E0,0E0,0E0,0E0,0E0,0E0,0E0,0E0,0E0,0E0,0E0,0E0,0E0,0E0,0E0,0E0,0E0,0E0,0E0,0E0,0E0,0E0,0E0,0E0,0E0,0E0,0E0,0E0,0E0,0E0,0E0,0E0,0E0,0E0,0E0,0E0,0E0,0E0,0E0,0E0,0E0,0E0,0E0,0E0,0E0,0E0],"parents":[2147483647,0,0,1,1,2,2,3,3,4,4,5,5,6,6,7,7,8,8,9,9,10,10,11,11,12,12,13,13,14,14,15,15,16,16,17,17,18,18,19,19,20,20,21,21,22,22,23,23,24,24,25,25,26,26,27,27,28,28,29,29,30,30,31,31,32,32,33,33,34,34,35,35,36,36,37,37,38,38,39,39,40,40,41,41,42,42,43,43,44,44,45,45,46,46,47,47,48,48,49,49,50,50,51,51,52,52,53,53,54,54,55,55,56,56,57,57,58,58,59,59,60,60,61,61,62,62],"right_children":[2,4,6,8,10,12,14,16,18,20,22,24,26,28,30,32,34,36,38,40,42,44,46,48,50,52,54,56,58,60,62,64,66,68,70,72,74,76,78,80,82,84,86,88,90,92,94,96,98,100,102,104,106,108,110,112,114,116,118,120,122,124,126,-1,-1,-1,-1,-1,-1,-1,-1,-1,-1,-1,-1,-1,-1,-1,-1,-1,-1,-1,-1,-1,-1,-1,-1,-1,-1,-1,-1,-1,-1,-1,-1,-1,-1,-1,-1,-1,-1,-1,-1,-1,-1,-1,-1,-1,-1,-1,-1,-1,-1,-1,-1,-1,-1,-1,-1,-1,-1,-1,-1,-1,-1,-1,-1],"split_conditions":[7E0,2E0,2E0,-4.2261827E-1,3E0,-4.848096E-1,3E0,2.7946288E8,1.3365E4,2E0,3.2E1,2.7946288E8,1E0,1.7E1,4.8E1,7.236045E7,-9.287965E3,1E0,4.0673664E-1,-8.1915206E-1,3.56555E9,4.0597555E8,1.1591E4,7.235566E7,1.0968E4,1.5E1,1.0258554E8,1E0,8.9879405E-1,9.4551855E-1,1E0,3.6586428E7,8.931068E7,9.961947E-1,1E0,4.1E1,2.8108657E9,3.109666E11,3.0864163E11,1E0,2.3521198E7,-1.2503851E1,-1.1834039E4,-9.998477E-1,6.123234E-17,5.993E3,1.2308E4,3.6586428E7,8.931068E7,1E0,3.109666E11,-1.7364818E-1,2.2E1,7.211263E7,1.3365E4,3.09017E-1,1.1E1,-2.2495106E-1,2.8094897E11,1E0,1.4E1,1.7E1,2.5473717E8,1.0948228E-1,-1.2543918E-1,1.1007534E0,1.8804413E-1,4.258507E-2,1.8708766E0,6.045999E-2,-7.347522E-2,-4.1242777E-3,-1.07019864E-1,-1.0611302E-1,-1.9521968E-1,6.2096626E-2,-3.0201378E-1,5.425315E0,-3.631086E-1,-2.0574442E-1,2.194009E-2,2.1286242E-1,-1.5671407E-1,-2.2779937E-1,-1.6377942E-1,-9.504302E-2,-2.5549245E-1,8.523259E-1,-5.3777993E-2,7.591837E-2,6.416811E-1,-1.474259E-1,-2.5346813E-1,2.671661E-2,-1.5052009E-1,4.3584177E-1,2.0157458E-2,1.0208126E0,4.6296078E-1,-5.608781E-3,1.440649E-1,5.096542E-1,4.7486685E-2,-2.9326126E-2,-1.7302404E-1,8.1733376E-2,-5.9377458E-2,1.1574071E-1,3.3481643E-1,7.719159E-2,3.5576415E-1,-2.089833E-1,-2.8190318E-1,3.7281387E-3,-1.521458E-1,1.968894E-1,2.5255391E-2,-1.3724434E-1,2.7262482E-1,-1.4280232E-2,1.2235593E-1,3.974764E-1,1.22457445E-1,-1.108676E-1,-2.6481364E-2,4.410266E-1,1.836898E-2],"split_indices":[10,12,12,6,12,6,12,1,0,10,0,1,11,10,0,1,7,12,5,6,1,1,0,1,0,10,1,2,5,5,11,1,1,5,10,0,1,1,1,8,1,7,7,5,5,0,0,1,1,11,1,5,10,1,0,5,10,6,1,11,10,10,1,0,0,0,0,0,0,0,0,0,0,0,0,0,0,0,0,0,0,0,0,0,0,0,0,0,0,0,0,0,0,0,0,0,0,0,0,0,0,0,0,0,0,0,0,0,0,0,0,0,0,0,0,0,0,0,0,0,0,0,0,0,0,0,0],"split_type":[0,0,0,0,0,0,0,0,0,0,0,0,0,0,0,0,0,0,0,0,0,0,0,0,0,0,0,0,0,0,0,0,0,0,0,0,0,0,0,0,0,0,0,0,0,0,0,0,0,0,0,0,0,0,0,0,0,0,0,0,0,0,0,0,0,0,0,0,0,0,0,0,0,0,0,0,0,0,0,0,0,0,0,0,0,0,0,0,0,0,0,0,0,0,0,0,0,0,0,0,0,0,0,0,0,0,0,0,0,0,0,0,0,0,0,0,0,0,0,0,0,0,0,0,0,0,0],"sum_hessian":[1.1049E5,3.2387E4,7.8103E4,1.6495E4,1.5892E4,3.984E4,3.8263E4,5.663E3,1.0832E4,8.374E3,7.518E3,8.952E3,3.0888E4,2.0186E4,1.8077E4,1.375E3,4.288E3,1.0519E4,3.13E2,2.363E3,6.011E3,1.557E3,5.961E3,2.215E3,6.737E3,9.159E3,2.1729E4,1.1836E4,8.35E3,4.809E3,1.3268E4,5.32E2,8.43E2,1.391E3,2.897E3,5.707E3,4.812E3,2.66E2,4.7E1,3.33E2,2.03E3,2.154E3,3.857E3,1.481E3,7.6E1,4.345E3,1.616E3,7.91E2,1.424E3,4.677E3,2.06E3,4.049E3,5.11E3,4.249E3,1.748E4,3.391E3,8.445E3,5.556E3,2.794E3,3.88E3,9.29E2,3.83E3,9.438E3,2.63E2,2.69E2,1.1E2,7.33E2,1.384E3,7E0,3.37E2,2.56E3,1.338E3,4.369E3,1.782E3,3.03E3,1.4E2,1.26E2,2E1,2.7E1,6.4E1,2.69E2,3.4E1,1.996E3,1.035E3,1.119E3,1.37E2,3.72E3,1.3E1,1.468E3,3.5E1,4.1E1,3.191E3,1.154E3,4.87E2,1.129E3,4.25E2,3.66E2,2.19E2,1.205E3,1.239E3,3.438E3,1.521E3,5.39E2,3.077E3,9.72E2,4.043E3,1.067E3,2.062E3,2.187E3,1.6805E4,6.75E2,1.537E3,1.854E3,3.412E3,5.033E3,1.264E3,4.292E3,2.717E3,7.7E1,1.124E3,2.756E3,4.78E2,4.51E2,2.251E3,1.579E3,1.57E2,9.281E3],"tree_param":{"num_deleted":"0","num_feature":"13","num_nodes":"127","size_leaf_vector":"1"}},{"base_weights":[2.052166E-2,-1.2699935E0,5.342156E0,-3.4433004E-2,-2.312583E0,4.9723864E0,2.0808064E1,-9.7800946E-1,2.3119504E0,-3.3835697E0,-9.318792E-1,2.9827452E0,6.813516E0,1.2940551E1,4.602081E1,-1.8029552E0,1.0240396E0,5.211568E0,1.2606664E0,-1.9942565E0,-4.0885124E0,-1.5552108E0,2.2046863E-1,5.618269E0,2.1356778E0,5.26327E0,9.936114E0,9.253213E0,3.48293E1,3.2451656E1,8.7012955E1,-3.1737036E-1,-2.3769393E0,3.0749464E0,-2.0991542E0,6.1980243E0,-3.3127144E-1,2.4974E0,-1.0600902E0,-2.1631715E0,6.628496E-1,-4.653884E0,-2.5355096E0,-5.1942825E-1,-2.1861997E0,2.3473794E0,-2.4242792E-1,9.142498E0,4.154214E0,1.6108638E0,4.3940644E0,4.206025E0,1.168162E1,1.5212318E1,8.001075E0,2.1006386E0,8.516885E0,2.2293346E1,3.8946006E0,2.7325321E1,5.0260262E0,4.980402E1,8.923045E0,-3.57345E-2,9.497861E-2,-1.4608553E-1,-5.7390194E-2,2.7023897E-1,1.0182704E-1,-5.5605978E-2,-1.9484162E-1,5.350367E-1,2.667518E-1,5.162797E-2,-1.13492966E-1,2.7627552E-1,7.282733E-2,-1.3849847E-1,2.3429267E-2,-1.566537E-1,-9.195159E-2,9.903782E-2,-1.1071737E-1,-1.7380601E-1,-2.805311E-1,-5.78355E-2,-2.1512754E-1,6.34293E-2,-4.9017284E-2,-1.2626144E-1,-3.1776037E-2,5.008955E-2,3.7736437E-1,-4.0397864E-2,6.1096545E-2,3.5894376E-1,6.5822667E-1,1.836352E-1,4.4064465E-1,5.9873264E-2,1.9327284E-1,1.6236965E-1,3.9999303E-1,3.6601532E-1,1.7237395E-1,4.8519826E-1,1.0649861E0,5.4454035E-1,9.4810945E-1,3.917674E-1,2.1890175E0,3.1346035E-1,7.822776E-1,1.4350257E0,-1.1805373E-1,4.5897824E-1,1.8693014E0,4.241611E0,1.7255739E0],"categories":[],"categories_nodes":[],"categories_segments":[],"categories_sizes":[],"default_left":[0,0,0,0,0,0,0,0,0,0,0,0,0,0,0,0,0,0,0,0,0,0,0,0,0,0,0,0,0,0,0,0,0,0,0,0,0,0,0,0,0,0,0,0,0,0,0,0,0,0,0,0,0,0,0,0,0,0,0,0,0,0,0,0,0,0,0,0,0,0,0,0,0,0,0,0,0,0,0,0,0,0,0,0,0,0,0,0,0,0,0,0,0,0,0,0,0,0,0,0,0,0,0,0,0,0,0,0,0,0,0,0,0,0,0,0,0,0,0],"id":10,"left_children":[1,3,5,7,9,11,13,15,17,19,21,23,25,27,29,31,33,35,37,39,41,43,45,47,49,51,53,55,57,59,61,63,65,67,69,71,73,75,77,79,81,83,85,87,89,91,93,95,97,99,101,103,105,107,109,-1,111,113,-1,115,-1,117,-1,-1,-1,-1,-1,-1,-1,-1,-1,-1,-1,-1,-1,-1,-1,-1,-1,-1,-1,-1,-1,-1,-1,-1,-1,-1,-1,-1,-1,-1,-1,-1,-1,-1,-1,-1,-1,-1,-1,-1,-1,-1,-1,-1,-1,-1,-1,-1,-1,-1,-1,-1,-1,-1,-1,-1,-1],"loss_changes":[7.569523E5,1.14271984E5,1.2291981E5,8.9885914E4,7.113933E4,7.6946875E4,9.8981984E4,4.782339E4,3.548809E4,2.6527312E4,1.5097467E4,2.2535906E4,5.2770406E4,3.0670832E4,6.33675E4,1.748475E4,5.4131906E4,1.6941203E4,2.4533887E4,4.0956172E3,1.5768906E4,8.91352E3,7.2654873E3,1.2634156E4,9.054031E3,4.944625E4,3.6827062E4,7.6023633E3,2.795429E4,2.9007133E4,8.978969E4,5.036209E3,9.900664E3,1.2329902E4,5.9398076E3,1.0162523E4,1.2423356E3,1.7566496E4,7.769661E3,2.690711E3,2.074751E3,1.482625E4,1.1687287E4,4.2578594E3,4.4544414E3,9.221398E3,5.0203306E3,5.5918867E3,3.8640742E3,5.778712E3,5.9320723E3,1.4772383E4,1.940425E4,1.55124375E4,1.5370328E4,0E0,5.0933496E3,7.0182227E3,0E0,1.5356898E4,0E0,8.857059E3,0E0,0E0,0E0,0E0,0E0,0E0,0E0,0E0,0E0,0E0,0E0,0E0,0E0,0E0,0E0,0E0,0E0,0E0,0E0,0E0,0E0,0E0,0E0,0E0,0E0,0E0,0E0,0E0,0E0,0E0,0E0,0E0,0E0,0E0,0E0,0E0,0E0,0E0,0E0,0E0,0E0,0E0,0E0,0E0,0E0,0E0,0E0,0E0,0E0,0E0,0E0,0E0,0E0,0E0,0E0,0E0,0E0],"parents":[2147483647,0,0,1,1,2,2,3,3,4,4,5,5,6,6,7,7,8,8,9,9,10,10,11,11,12,12,13,13,14,14,15,15,16,16,17,17,18,18,19,19,20,20,21,21,22,22,23,23,24,24,25,25,26,26,27,27,28,28,29,29,30,30,31,31,32,32,33,33,34,34,35,35,36,36,37,37,38,38,39,39,40,40,41,41,42,42,43,43,44,44,45,45,46,46,47,47,48,48,49,49,50,50,51,51,52,52,53,53,54,54,56,56,57,57,59,59,61,61],"right_children":[2,4,6,8,10,12,14,16,18,20,22,24,26,28,30,32,34,36,38,40,42,44,46,48,50,52,54,56,58,60,62,64,66,68,70,72,74,76,78,80,82,84,86,88,90,92,94,96,98,100,102,104,106,108,110,-1,112,114,-1,116,-1,118,-1,-1,-1,-1,-1,-1,-1,-1,-1,-1,-1,-1,-1,-1,-1,-1,-1,-1,-1,-1,-1,-1,-1,-1,-1,-1,-1,-1,-1,-1,-1,-1,-1,-1,-1,-1,-1,-1,-1,-1,-1,-1,-1,-1,-1,-1,-1,-1,-1,-1,-1,-1,-1,-1,-1,-1,-1],"split_conditions":[1.9438E1,2.67E0,8.23E0,1.7E1,1.39E1,2.28E1,-1.6712479E1,1E0,1E1,-4.3837115E-1,1.71E1,2.7946288E8,5.591929E-1,1.5248197E11,9.75E0,7.7186374E8,1.1E1,3E0,2.2E1,7.13E0,1E0,5.465973E8,1.0206168E8,2.8E0,8.910065E-1,6.25E0,5.4392557E8,3.6586428E7,3.32E1,3.52E1,9.8768836E-1,1.55E1,1.4E1,1.022E0,-2.923717E-1,6.4E0,5.5127472E1,7.528111E8,-7.193398E-1,6E0,-7.313537E-1,4.19E0,1.1E1,-5.4463905E-1,7.7128823E3,7.236045E7,1.2815339E11,1.8E1,9.335804E-1,2.2925368E11,1.9E1,1.1E1,1.5423324E11,2.49E1,7.73E0,2.1006386E0,2.82E1,3.6548153E11,3.8946006E0,1.0206168E8,5.0260262E0,-7.6604444E-1,8.923045E0,-3.57345E-2,9.497861E-2,-1.4608553E-1,-5.7390194E-2,2.7023897E-1,1.0182704E-1,-5.5605978E-2,-1.9484162E-1,5.350367E-1,2.667518E-1,5.162797E-2,-1.13492966E-1,2.7627552E-1,7.282733E-2,-1.3849847E-1,2.3429267E-2,-1.566537E-1,-9.195159E-2,9.903782E-2,-1.1071737E-1,-1.7380601E-1,-2.805311E-1,-5.78355E-2,-2.1512754E-1,6.34293E-2,-4.9017284E-2,-1.2626144E-1,-3.1776037E-2,5.008955E-2,3.7736437E-1,-4.0397864E-2,6.1096545E-2,3.5894376E-1,6.5822667E-1,1.836352E-1,4.4064465E-1,5.9873264E-2,1.9327284E-1,1.6236965E-1,3.9999303E-1,3.6601532E-1,1.7237395E-1,4.8519826E-1,1.0649861E0,5.4454035E-1,9.4810945E-1,3.917674E-1,2.1890175E0,3.1346035E-1,7.822776E-1,1.4350257E0,-1.1805373E-1,4.5897824E-1,1.8693014E0,4.241611E0,1.7255739E0],"split_indices":[9,3,3,10,9,9,7,2,9,5,9,1,6,1,3,1,10,12,10,3,2,1,1,3,6,3,1,1,9,9,5,9,9,3,5,9,7,1,5,10,5,3,10,6,7,1,1,10,6,1,10,10,1,9,3,0,9,1,0,1,0,6,0,0,0,0,0,0,0,0,0,0,0,0,0,0,0,0,0,0,0,0,0,0,0,0,0,0,0,0,0,0,0,0,0,0,0,0,0,0,0,0,0,0,0,0,0,0,0,0,0,0,0,0,0,0,0,0,0],"split_type":[0,0,0,0,0,0,0,0,0,0,0,0,0,0,0,0,0,0,0,0,0,0,0,0,0,0,0,0,0,0,0,0,0,0,0,0,0,0,0,0,0,0,0,0,0,0,0,0,0,0,0,0,0,0,0,0,0,0,0,0,0,0,0,0,0,0,0,0,0,0,0,0,0,0,0,0,0,0,0,0,0,0,0,0,0,0,0,0,0,0,0,0,0,0,0,0,0,0,0,0,0,0,0,0,0,0,0,0,0,0,0,0,0,0,0,0,0,0,0],"sum_hessian":[1.10218E5,8.8707E4,2.1511E4,4.0597E4,4.811E4,2.101E4,5.01E2,2.8954E4,1.1643E4,2.7093E4,2.1017E4,1.0099E4,1.0911E4,3.83E2,1.18E2,2.0505E4,8.449E3,3.097E3,8.546E3,9.121E3,1.7972E4,1.3639E4,7.378E3,2.455E3,7.644E3,7.293E3,3.618E3,3.29E2,5.4E1,9E1,2.8E1,5.715E3,1.479E4,5.1E3,3.349E3,2.629E3,4.68E2,5.575E3,2.971E3,8.576E3,5.45E2,1.3174E4,4.798E3,5.164E3,8.475E3,1.318E3,6.06E3,7.19E2,1.736E3,6.204E3,1.44E3,6.263E3,1.03E3,9.69E2,2.649E3,6E0,3.23E2,4.3E1,1.1E1,8.5E1,5E0,2.1E1,7E0,4.847E3,8.68E2,1.0247E4,4.543E3,1.571E3,3.529E3,2.163E3,1.186E3,4.21E2,2.208E3,2.75E2,1.93E2,1.425E3,4.15E3,1.402E3,1.569E3,2.146E3,6.43E3,3.74E2,1.71E2,5.907E3,7.267E3,2.696E3,2.102E3,1.058E3,4.106E3,6.954E3,1.521E3,1.048E3,2.7E2,4.372E3,1.688E3,4.85E2,2.34E2,1.575E3,1.61E2,5.244E3,9.6E2,1.094E3,3.46E2,1.225E3,5.038E3,8.56E2,1.74E2,4.52E2,5.17E2,2.638E3,1.1E1,2.47E2,7.6E1,3.4E1,9E0,3.1E1,5.4E1,5E0,1.6E1],"tree_param":{"num_deleted":"0","num_feature":"13","num_nodes":"119","size_leaf_vector":"1"}},{"base_weights":[2.4704952E-3,-1.1242515E0,5.493025E0,1.36755E-1,-2.029538E0,5.0499024E0,1.8232164E1,-7.72235E-1,2.4024427E0,-2.7565815E0,-1.1613024E-3,3.472259E0,6.918466E0,1.1677124E1,3.9314693E1,-1.6062242E0,1.2457159E0,8.886274E0,1.9193275E0,-1.7428702E0,-3.4821646E0,1.9918829E0,-4.3069512E-1,5.8085437E0,2.5920265E0,5.4085455E0,1.0550595E1,7.605485E0,2.324488E1,2.9636332E1,9.383814E1,-1.1692118E-1,-2.158472E0,3.6506073E0,-1.0648478E0,1.2496491E1,6.6968274E0,4.6343045E0,9.155651E-1,-2.9541106E0,-1.3820534E0,-2.216885E0,-4.141561E0,1.1111794E1,1.4518322E0,-9.654399E-1,8.756132E-1,4.771404E0,8.945463E0,2.0874574E0,4.7909403E0,4.5162816E0,1.1365476E1,1.6748672E1,8.555036E0,2.8325891E1,6.360607E0,1.5339229E1,5.008449E1,2.527661E1,5.703563E0,4.8056713E1,9.253798E0,-4.306507E-2,6.825405E-2,-6.71133E-2,-1.4737236E-1,2.711137E-1,1.278462E-1,8.961937E-2,-8.100193E-2,9.363858E-1,5.410935E-1,4.0943748E-1,-4.9126353E-2,2.73744E-1,5.9037667E-2,1.04182236E-1,-5.8669426E-2,-2.0671909E-1,-1.2774315E-1,-3.0252783E-2,-9.4904445E-2,1.02518916E-1,-1.6595212E-1,-2.4098499E-1,-1.3158844E-1,1.442454E-1,2.1811244E0,-3.7221428E-2,1.2128543E-1,7.0714146E-1,-4.974368E-2,-1.8316863E-2,9.647956E-2,3.7868196E-1,1.7978583E-1,2.5955227E-1,6.303246E-1,1.8228202E-1,6.9214754E-2,1.4232269E-1,3.6269832E-1,1.880108E-1,4.1951177E-1,4.549903E-1,1.0691353E0,6.95535E-1,1.1039097E0,3.7215587E-1,7.4091643E-1,2.0169995E0,1.0147783E0,1.3947421E-1,5.4752195E-1,5.145218E-1,1.2715394E0,1.4285587E0,3.8193994E0,1.0535629E0,3.8101575E0,3.3065763E0,1.5299338E0],"categories":[],"categories_nodes":[],"categories_segments":[],"categories_sizes":[],"default_left":[0,0,0,0,0,0,0,0,0,0,0,0,0,0,0,0,0,0,0,0,0,0,0,0,0,0,0,0,0,0,0,0,0,0,0,0,0,0,0,0,0,0,0,0,0,0,0,0,0,0,0,0,0,0,0,0,0,0,0,0,0,0,0,0,0,0,0,0,0,0,0,0,0,0,0,0,0,0,0,0,0,0,0,0,0,0,0,0,0,0,0,0,0,0,0,0,0,0,0,0,0,0,0,0,0,0,0,0,0,0,0,0,0,0,0,0,0,0,0,0,0,0,0],"id":11,"left_children":[1,3,5,7,9,11,13,15,17,19,21,23,25,27,29,31,33,35,37,39,41,43,45,47,49,51,53,55,57,59,61,63,65,67,69,71,73,75,77,79,81,83,85,87,89,91,93,95,97,99,101,103,105,107,109,111,113,115,117,119,-1,121,-1,-1,-1,-1,-1,-1,-1,-1,-1,-1,-1,-1,-1,-1,-1,-1,-1,-1,-1,-1,-1,-1,-1,-1,-1,-1,-1,-1,-1,-1,-1,-1,-1,-1,-1,-1,-1,-1,-1,-1,-1,-1,-1,-1,-1,-1,-1,-1,-1,-1,-1,-1,-1,-1,-1,-1,-1,-1,-1,-1,-1],"loss_changes":[6.8134356E5,1.0432173E5,1.05768625E5,7.865368E4,7.844764E4,5.3404188E4,8.660491E4,4.587246E4,3.4236152E4,2.8796594E4,1.2017651E4,2.0198031E4,4.5440062E4,2.2525281E4,7.584594E4,1.5861797E4,4.4295984E4,5.907832E3,2.7732758E4,7.136211E3,1.9031719E4,1.22427295E4,8.0683027E3,8.705773E3,7.912961E3,3.110611E4,2.9974344E4,9.054217E3,2.575482E4,4.423511E4,8.29998E4,5.757534E3,9.056008E3,7.5545664E3,6.4528423E3,2.771289E3,5.438662E3,7.967992E3,1.8136998E4,1.7560449E3,5.046918E3,3.679049E4,1.5347094E4,3.7051344E4,5.0303276E3,3.6583115E3,4.3923623E3,6.6376445E3,9.102496E3,6.360713E3,6.3587266E3,1.4906164E4,1.7122266E4,8.646906E3,1.27318125E4,1.1108184E3,5.525952E3,4.731424E3,1.3662023E4,2.4736477E4,0E0,3.0252734E3,0E0,0E0,0E0,0E0,0E0,0E0,0E0,0E0,0E0,0E0,0E0,0E0,0E0,0E0,0E0,0E0,0E0,0E0,0E0,0E0,0E0,0E0,0E0,0E0,0E0,0E0,0E0,0E0,0E0,0E0,0E0,0E0,0E0,0E0,0E0,0E0,0E0,0E0,0E0,0E0,0E0,0E0,0E0,0E0,0E0,0E0,0E0,0E0,0E0,0E0,0E0,0E0,0E0,0E0,0E0,0E0,0E0,0E0,0E0,0E0,0E0],"parents":[2147483647,0,0,1,1,2,2,3,3,4,4,5,5,6,6,7,7,8,8,9,9,10,10,11,11,12,12,13,13,14,14,15,15,16,16,17,17,18,18,19,19,20,20,21,21,22,22,23,23,24,24,25,25,26,26,27,27,28,28,29,29,30,30,31,31,32,32,33,33,34,34,35,35,36,36,37,37,38,38,39,39,40,40,41,41,42,42,43,43,44,44,45,45,46,46,47,47,48,48,49,49,50,50,51,51,52,52,53,53,54,54,55,55,56,56,57,57,58,58,59,59,61,61],"right_children":[2,4,6,8,10,12,14,16,18,20,22,24,26,28,30,32,34,36,38,40,42,44,46,48,50,52,54,56,58,60,62,64,66,68,70,72,74,76,78,80,82,84,86,88,90,92,94,96,98,100,102,104,106,108,110,112,114,116,118,120,-1,122,-1,-1,-1,-1,-1,-1,-1,-1,-1,-1,-1,-1,-1,-1,-1,-1,-1,-1,-1,-1,-1,-1,-1,-1,-1,-1,-1,-1,-1,-1,-1,-1,-1,-1,-1,-1,-1,-1,-1,-1,-1,-1,-1,-1,-1,-1,-1,-1,-1,-1,-1,-1,-1,-1,-1,-1,-1,-1,-1,-1,-1],"split_conditions":[2.02E1,2.46E0,7.88E0,1.7E1,1.6E1,2.41E1,-1.6712479E1,1E0,7.3E0,-3.4202015E-1,1.0206168E8,5.4392557E8,5.8778524E-1,2.88E1,9.75E0,7.7186374E8,1E1,2.2E1,7.7186374E8,6E0,-6.56059E-1,-2.7032017E1,1.87E1,1.8E1,1.9E1,6.25E0,4.7517555E8,6.5838764E7,1.2331777E11,3.52E1,9.8768836E-1,7.77146E-1,6.2899694E0,1.1E0,2.6575186E8,-9.670562E3,2.1E0,2.3E1,2.2E1,4.9094936E-1,8.423638E8,2E0,1E0,7.236045E7,1E0,-1.2931884E4,1E0,1.1E1,3.0531308E-1,1.1E1,1.3790189E2,1.9E1,1.5423324E11,8.681728E-1,1.8E1,3.6586428E7,2.46E1,9.15E0,3.32E1,8.250381E3,5.703563E0,-4.6947157E-1,9.253798E0,-4.306507E-2,6.825405E-2,-6.71133E-2,-1.4737236E-1,2.711137E-1,1.278462E-1,8.961937E-2,-8.100193E-2,9.363858E-1,5.410935E-1,4.0943748E-1,-4.9126353E-2,2.73744E-1,5.9037667E-2,1.04182236E-1,-5.8669426E-2,-2.0671909E-1,-1.2774315E-1,-3.0252783E-2,-9.4904445E-2,1.02518916E-1,-1.6595212E-1,-2.4098499E-1,-1.3158844E-1,1.442454E-1,2.1811244E0,-3.7221428E-2,1.2128543E-1,7.0714146E-1,-4.974368E-2,-1.8316863E-2,9.647956E-2,3.7868196E-1,1.7978583E-1,2.5955227E-1,6.303246E-1,1.8228202E-1,6.9214754E-2,1.4232269E-1,3.6269832E-1,1.880108E-1,4.1951177E-1,4.549903E-1,1.0691353E0,6.95535E-1,1.1039097E0,3.7215587E-1,7.4091643E-1,2.0169995E0,1.0147783E0,1.3947421E-1,5.4752195E-1,5.145218E-1,1.2715394E0,1.4285587E0,3.8193994E0,1.0535629E0,3.8101575E0,3.3065763E0,1.5299338E0],"split_indices":[9,3,3,10,9,9,7,2,9,5,1,1,6,9,3,1,10,10,1,10,6,7,9,10,10,3,1,1,1,9,5,5,7,3,1,7,3,10,10,6,1,12,2,1,11,7,12,10,6,10,7,10,1,6,10,1,9,3,9,7,0,6,0,0,0,0,0,0,0,0,0,0,0,0,0,0,0,0,0,0,0,0,0,0,0,0,0,0,0,0,0,0,0,0,0,0,0,0,0,0,0,0,0,0,0,0,0,0,0,0,0,0,0,0,0,0,0,0,0,0,0,0,0],"split_type":[0,0,0,0,0,0,0,0,0,0,0,0,0,0,0,0,0,0,0,0,0,0,0,0,0,0,0,0,0,0,0,0,0,0,0,0,0,0,0,0,0,0,0,0,0,0,0,0,0,0,0,0,0,0,0,0,0,0,0,0,0,0,0,0,0,0,0,0,0,0,0,0,0,0,0,0,0,0,0,0,0,0,0,0,0,0,0,0,0,0,0,0,0,0,0,0,0,0,0,0,0,0,0,0,0,0,0,0,0,0,0,0,0,0,0,0,0,0,0,0,0,0,0],"sum_hessian":[1.10135E5,9.1383E4,1.8752E4,3.8189E4,5.3194E4,1.8123E4,6.29E2,2.7255E4,1.0934E4,3.9158E4,1.4036E4,9.828E3,8.295E3,4.81E2,1.48E2,1.9285E4,7.97E3,7.57E2,1.0177E4,1.6337E4,2.2821E4,2.488E3,1.1548E4,2.688E3,7.14E3,5.861E3,2.434E3,3.57E2,1.24E2,1.27E2,2.1E1,5.217E3,1.4068E4,3.905E3,4.065E3,2.84E2,4.73E2,2.746E3,7.431E3,3.748E3,1.2589E4,7.82E3,1.5001E4,1.38E2,2.35E3,8.194E3,3.354E3,2.022E3,6.66E2,5.809E3,1.331E3,5.099E3,7.62E2,5.91E2,1.843E3,1.9E1,3.38E2,9.7E1,2.7E1,1.22E2,5E0,1.5E1,6E0,3.473E3,1.744E3,6.916E3,7.152E3,1.489E3,2.416E3,6.61E2,3.404E3,5.8E1,2.26E2,3.96E2,7.7E1,2.208E3,5.38E2,4.766E3,2.665E3,9.45E2,2.803E3,5.025E3,7.564E3,1.605E3,6.215E3,1.035E4,4.651E3,1.11E2,2.7E1,7.22E2,1.628E3,1.5E1,8.179E3,1.54E3,1.814E3,5.96E2,1.426E3,3.3E2,3.36E2,1.805E3,4.004E3,7.45E2,5.86E2,4.268E3,8.31E2,6.23E2,1.39E2,3.88E2,2.03E2,1.567E3,2.76E2,6E0,1.3E1,1.91E2,1.47E2,6.6E1,3.1E1,1.6E1,1.1E1,1.14E2,8E0,6E0,9E0],"tree_param":{"num_deleted":"0","num_feature":"13","num_nodes":"123","size_leaf_vector":"1"}},{"base_weights":[-9.757488E-3,-1.0409073E0,5.3543878E0,-1.473544E0,7.520378E-1,3.5762484E0,7.190991E0,-2.715744E0,-8.91152E-1,2.5437548E0,1.0408034E-1,5.710876E0,2.75567E0,1.209407E1,6.1606216E0,2.602653E-1,-2.8895004E0,-1.2917174E0,9.536679E-1,8.89037E-1,3.2056723E0,-1.2595949E0,6.821266E-1,4.779326E0,1.0086769E1,3.916379E0,1.1439103E0,8.178649E0,1.8167326E1,5.2070875E0,1.14218445E1,3.484381E0,-1.9417015E0,-2.142233E0,-3.5606377E0,-2.413825E0,-8.202798E-1,-6.3547397E-1,2.6157575E0,-1.5823556E-1,2.505012E0,5.0411E0,2.574566E0,6.4605985E0,-1.346483E0,4.7938906E-2,1.8097676E0,6.881041E0,3.5776823E0,5.9084253E0,1.5708227E1,3.192184E0,7.751841E0,-2.0749453E-1,2.3055437E0,5.7294817E0,1.1574958E1,1.6608438E1,6.2154903E1,4.1375203E0,9.957573E0,1.7399708E1,4.751746E0,2.0932627E-1,-2.0277333E-1,-7.669125E-2,-2.7263302E-1,-2.520876E-3,-1.3696016E-1,-1.344222E-1,-2.0655477E-1,-1.710439E-1,-4.5938067E-2,3.2099497E-2,-6.95713E-2,2.6231397E-2,-1.9398142E-1,3.5028765E-1,7.238025E-2,-2.4532134E-2,1.759903E-1,6.986387E-2,2.9679665E-1,5.0262445E-1,1.7193101E-1,5.6604285E-2,1.9748515E-1,7.5989115E-1,1.1531743E-1,-9.358593E-2,-1.0885424E-2,2.0168696E-1,-6.4203786E-3,1.9367965E-1,5.79088E-2,3.1103772E-1,1.0781868E0,-1.2830055E-2,2.0494059E-1,9.045752E-2,4.3013293E-1,5.206499E-1,1.0154958E0,3.7555736E-1,1.23756364E-1,1.3680322E0,3.754469E-1,8.5051024E-1,-2.627029E-2,2.2721744E-1,7.5037524E-2,1.7655744E-1,4.4433317E-1,1.2264562E0,5.267629E-1,7.423667E-1,2.1306295E0,9.84944E-1,5.5928416E0,7.378622E-2,2.5976437E-1,1.0928692E0,4.1640526E-1,6.688444E-1,2.7960927E0,1.7984647E-1,6.0508364E-1],"categories":[],"categories_nodes":[],"categories_segments":[],"categories_sizes":[],"default_left":[0,0,0,0,0,0,0,0,0,0,0,0,0,0,0,0,0,0,0,0,0,0,0,0,0,0,0,0,0,0,0,0,0,0,0,0,0,0,0,0,0,0,0,0,0,0,0,0,0,0,0,0,0,0,0,0,0,0,0,0,0,0,0,0,0,0,0,0,0,0,0,0,0,0,0,0,0,0,0,0,0,0,0,0,0,0,0,0,0,0,0,0,0,0,0,0,0,0,0,0,0,0,0,0,0,0,0,0,0,0,0,0,0,0,0,0,0,0,0,0,0,0,0,0,0,0,0],"id":12,"left_children":[1,3,5,7,9,11,13,15,17,19,21,23,25,27,29,31,33,35,37,39,41,43,45,47,49,51,53,55,57,59,61,63,65,67,69,71,73,75,77,79,81,83,85,87,89,91,93,95,97,99,101,103,105,107,109,111,113,115,117,119,121,123,125,-1,-1,-1,-1,-1,-1,-1,-1,-1,-1,-1,-1,-1,-1,-1,-1,-1,-1,-1,-1,-1,-1,-1,-1,-1,-1,-1,-1,-1,-1,-1,-1,-1,-1,-1,-1,-1,-1,-1,-1,-1,-1,-1,-1,-1,-1,-1,-1,-1,-1,-1,-1,-1,-1,-1,-1,-1,-1,-1,-1,-1,-1,-1,-1],"loss_changes":[6.109086E5,7.18606E4,5.81305E4,5.3989188E4,2.0907402E4,1.5836516E4,4.4175812E4,1.2318625E4,3.7549082E4,5.2359043E3,1.0427271E4,1.0191609E4,1.2228578E4,3.599603E4,3.6261844E4,9.342472E3,1.1280047E4,2.2082344E4,2.3945008E4,2.3155532E3,3.9439492E3,2.6502798E3,6.643526E3,5.2107695E3,1.0242078E4,1.0532996E4,4.3002617E3,7.636258E3,3.9767844E4,3.1110188E4,4.417628E4,2.8440078E3,1.1114897E3,1.33015625E4,5.8878438E3,1.8591117E4,2.4553217E4,1.744609E4,2.2712846E4,1.0177135E3,2.0364019E3,6.9761875E3,5.041826E3,1.5619993E3,2.308832E3,4.1805557E3,4.4924297E3,7.166035E3,2.6406172E3,2.7897139E3,4.3451367E3,9.888521E3,2.666668E3,6.9441157E3,2.6471958E3,3.7165117E3,4.953867E3,2.5745844E4,3.999947E4,1.4087023E4,2.1651523E4,8.990806E4,4.4210635E3,0E0,0E0,0E0,0E0,0E0,0E0,0E0,0E0,0E0,0E0,0E0,0E0,0E0,0E0,0E0,0E0,0E0,0E0,0E0,0E0,0E0,0E0,0E0,0E0,0E0,0E0,0E0,0E0,0E0,0E0,0E0,0E0,0E0,0E0,0E0,0E0,0E0,0E0,0E0,0E0,0E0,0E0,0E0,0E0,0E0,0E0,0E0,0E0,0E0,0E0,0E0,0E0,0E0,0E0,0E0,0E0,0E0,0E0,0E0,0E0,0E0,0E0,0E0,0E0],"parents":[2147483647,0,0,1,1,2,2,3,3,4,4,5,5,6,6,7,7,8,8,9,9,10,10,11,11,12,12,13,13,14,14,15,15,16,16,17,17,18,18,19,19,20,20,21,21,22,22,23,23,24,24,25,25,26,26,27,27,28,28,29,29,30,30,31,31,32,32,33,33,34,34,35,35,36,36,37,37,38,38,39,39,40,40,41,41,42,42,43,43,44,44,45,45,46,46,47,47,48,48,49,49,50,50,51,51,52,52,53,53,54,54,55,55,56,56,57,57,58,58,59,59,60,60,61,61,62,62],"right_children":[2,4,6,8,10,12,14,16,18,20,22,24,26,28,30,32,34,36,38,40,42,44,46,48,50,52,54,56,58,60,62,64,66,68,70,72,74,76,78,80,82,84,86,88,90,92,94,96,98,100,102,104,106,108,110,112,114,116,118,120,122,124,126,-1,-1,-1,-1,-1,-1,-1,-1,-1,-1,-1,-1,-1,-1,-1,-1,-1,-1,-1,-1,-1,-1,-1,-1,-1,-1,-1,-1,-1,-1,-1,-1,-1,-1,-1,-1,-1,-1,-1,-1,-1,-1,-1,-1,-1,-1,-1,-1,-1,-1,-1,-1,-1,-1,-1,-1,-1,-1,-1,-1,-1,-1,-1,-1],"split_conditions":[2.05E1,1.68E1,2.41E1,6E0,4.7517555E8,5.4392557E8,1.0213068E8,5.3E0,3.7460658E-1,1E0,1E0,1.9E1,5.2335955E-2,7.236045E7,2.2925368E11,3E0,2E0,1E0,1.7E1,1.87E1,1E1,-1.2121E4,1.89E1,1.2E1,3.0531308E-1,1.9E1,1E0,1E0,3.387062E1,7.77146E-1,3.0864163E11,4.0673664E-1,9.488032E1,-6.293204E-1,4.71625E9,1.7E1,1E1,1.1E1,8.8E0,9.7437006E-1,1.8E1,-4.417564E-1,1.6E1,1.82E1,1.7E1,-1.0384435E4,-4.417564E-1,9.7437006E-1,-6.819984E-1,1E0,7.235566E7,1E1,-9.9939084E-1,-1.2505442E4,1.1E1,4.2261827E-1,-8.09017E-1,3.52E1,-5.150381E-1,1E0,5.4392557E8,3.0749655E11,8.7637395E-1,2.0932627E-1,-2.0277333E-1,-7.669125E-2,-2.7263302E-1,-2.520876E-3,-1.3696016E-1,-1.344222E-1,-2.0655477E-1,-1.710439E-1,-4.5938067E-2,3.2099497E-2,-6.95713E-2,2.6231397E-2,-1.9398142E-1,3.5028765E-1,7.238025E-2,-2.4532134E-2,1.759903E-1,6.986387E-2,2.9679665E-1,5.0262445E-1,1.7193101E-1,5.6604285E-2,1.9748515E-1,7.5989115E-1,1.1531743E-1,-9.358593E-2,-1.0885424E-2,2.0168696E-1,-6.4203786E-3,1.9367965E-1,5.79088E-2,3.1103772E-1,1.0781868E0,-1.2830055E-2,2.0494059E-1,9.045752E-2,4.3013293E-1,5.206499E-1,1.0154958E0,3.7555736E-1,1.23756364E-1,1.3680322E0,3.754469E-1,8.5051024E-1,-2.627029E-2,2.2721744E-1,7.5037524E-2,1.7655744E-1,4.4433317E-1,1.2264562E0,5.267629E-1,7.423667E-1,2.1306295E0,9.84944E-1,5.5928416E0,7.378622E-2,2.5976437E-1,1.0928692E0,4.1640526E-1,6.688444E-1,2.7960927E0,1.7984647E-1,6.0508364E-1],"split_indices":[9,9,9,10,1,1,1,9,4,11,11,10,4,1,1,10,12,11,10,9,10,7,9,10,6,10,12,12,7,6,1,6,7,6,1,10,10,10,9,6,10,4,10,9,10,7,4,6,4,12,1,10,4,7,10,6,4,9,4,11,1,1,6,0,0,0,0,0,0,0,0,0,0,0,0,0,0,0,0,0,0,0,0,0,0,0,0,0,0,0,0,0,0,0,0,0,0,0,0,0,0,0,0,0,0,0,0,0,0,0,0,0,0,0,0,0,0,0,0,0,0,0,0,0,0,0,0],"split_type":[0,0,0,0,0,0,0,0,0,0,0,0,0,0,0,0,0,0,0,0,0,0,0,0,0,0,0,0,0,0,0,0,0,0,0,0,0,0,0,0,0,0,0,0,0,0,0,0,0,0,0,0,0,0,0,0,0,0,0,0,0,0,0,0,0,0,0,0,0,0,0,0,0,0,0,0,0,0,0,0,0,0,0,0,0,0,0,0,0,0,0,0,0,0,0,0,0,0,0,0,0,0,0,0,0,0,0,0,0,0,0,0,0,0,0,0,0,0,0,0,0,0,0,0,0,0,0],"sum_hessian":[1.10445E5,9.2638E4,1.7807E4,7.463E4,1.8008E4,9.049E3,8.758E3,2.382E4,5.081E4,4.782E3,1.3226E4,2.511E3,6.538E3,1.519E3,7.239E3,1.314E3,2.2506E4,4.1746E4,9.064E3,1.367E3,3.415E3,3.937E3,9.289E3,2.072E3,4.39E2,3.8E3,2.738E3,9.25E2,5.94E2,6.13E3,1.109E3,5.33E2,7.81E2,1.0651E4,1.1855E4,1.2349E4,2.9397E4,4.634E3,4.43E3,8.3E2,5.37E2,8.72E2,2.543E3,4.3E1,3.894E3,5.946E3,3.343E3,7.52E2,1.32E3,2.53E2,1.86E2,3.198E3,6.02E2,1.266E3,1.472E3,5.39E2,3.86E2,5.75E2,1.9E1,5.005E3,1.125E3,5.84E2,5.25E2,4.88E2,4.5E1,7.01E2,8E1,2.365E3,8.286E3,4.69E3,7.165E3,7.378E3,4.971E3,8.257E3,2.114E4,3.414E3,1.22E3,9.3E2,3.5E3,7.62E2,6.8E1,4.07E2,1.3E2,2.1E2,6.62E2,1.242E3,1.301E3,1.3E1,3E1,2.657E3,1.237E3,2.51E2,5.695E3,8.01E2,2.542E3,7.21E2,3.1E1,1.58E2,1.162E3,1.01E2,1.52E2,8.8E1,9.8E1,4.54E2,2.744E3,6E0,5.96E2,2.2E1,1.244E3,3.88E2,1.084E3,3.19E2,2.2E2,2.7E1,3.59E2,5.4E2,3.5E1,1.1E1,8E0,1.424E3,3.581E3,1.34E2,9.91E2,5.3E2,5.4E1,4.55E2,7E1],"tree_param":{"num_deleted":"0","num_feature":"13","num_nodes":"127","size_leaf_vector":"1"}},{"base_weights":[3.1075E-2,-9.5620227E-1,5.195912E0,-1.391774E0,8.5065997E-1,8.723136E0,4.1364017E0,-2.5730014E0,-8.388014E-1,2.6074376E0,2.0351624E-1,7.539719E0,1.8045135E1,3.585426E0,1.2883221E1,2.9284215E-1,-2.7430146E0,1.3611239E0,-1.0295118E0,1.4302633E0,3.5057943E0,-3.3238134E-1,2.1165924E0,4.036137E0,9.175644E0,1.589157E1,3.4242416E1,2.8136623E0,6.24522E0,1.9054937E1,2.430646E0,2.8514314E0,-1.3460239E0,-1.9793121E0,-3.4306128E0,-1.8751676E-1,4.6017E0,-7.7564955E-2,-1.5696349E0,3.9121597E0,8.2551086E-1,1.2856663E1,2.4282012E0,-1.4536391E0,1.3884145E-1,3.1041014E0,-2.2832836E-1,2.2893863E0,4.7379985E0,8.966885E0,5.50085E1,2.2128511E1,1.2242165E1,4.4801598E0,2.5268633E1,8.30872E-1,3.604982E0,4.5266356E0,1.0728148E1,1.3609129E1,5.117037E1,1.2528498E0,3.0593348E1,1.7934172E-1,-1.8480584E-1,-4.3579966E-2,-2.6196703E-1,1.8888236E-3,-1.2743537E-1,-1.3069703E-1,-1.9811736E-1,-1.1029579E-1,9.879791E-2,3.3575174E-1,-4.92032E-3,1.7409782E-1,-4.0902793E-2,-3.0638928E-2,-1.06100075E-1,-7.355345E-4,2.759022E-1,7.3698196E-3,1.9841923E-1,1.4146051E0,4.2439756E-1,1.0559608E-1,4.1584402E-1,4.746577E-2,-9.589863E-2,-2.5032727E-2,5.609274E-2,1.0917002E-1,2.2211623E0,1.0837003E-1,-1.03593506E-1,9.7143136E-2,5.023199E-1,3.3995134E-1,1.9288528E-1,2.067362E-1,5.0503224E-1,1.4679575E0,3.5744882E0,7.9105204E-1,2.56796E0,4.141276E-1,8.723516E-1,7.624374E-2,1.5822327E0,6.5279976E-3,1.4277643E-1,1.5611868E-1,3.434081E-1,1.9038175E-1,4.8992276E-1,4.5780358E-1,9.7539395E-1,1.2284212E0,6.010062E-1,1.5902567E0,4.2476745E0,-1.6337284E-1,1.7946383E-1,6.2937164E-1,2.0828257E0],"categories":[],"categories_nodes":[],"categories_segments":[],"categories_sizes":[],"default_left":[0,0,0,0,0,0,0,0,0,0,0,0,0,0,0,0,0,0,0,0,0,0,0,0,0,0,0,0,0,0,0,0,0,0,0,0,0,0,0,0,0,0,0,0,0,0,0,0,0,0,0,0,0,0,0,0,0,0,0,0,0,0,0,0,0,0,0,0,0,0,0,0,0,0,0,0,0,0,0,0,0,0,0,0,0,0,0,0,0,0,0,0,0,0,0,0,0,0,0,0,0,0,0,0,0,0,0,0,0,0,0,0,0,0,0,0,0,0,0,0,0,0,0,0,0],"id":13,"left_children":[1,3,5,7,9,11,13,15,17,19,21,23,25,27,29,31,33,35,37,39,41,43,45,47,49,51,53,55,57,59,61,63,65,67,69,71,73,75,77,79,81,83,85,87,89,91,93,95,97,99,101,103,105,-1,107,109,111,113,115,117,119,121,123,-1,-1,-1,-1,-1,-1,-1,-1,-1,-1,-1,-1,-1,-1,-1,-1,-1,-1,-1,-1,-1,-1,-1,-1,-1,-1,-1,-1,-1,-1,-1,-1,-1,-1,-1,-1,-1,-1,-1,-1,-1,-1,-1,-1,-1,-1,-1,-1,-1,-1,-1,-1,-1,-1,-1,-1,-1,-1,-1,-1,-1,-1],"loss_changes":[5.614902E5,7.27563E4,6.600269E4,4.865239E4,2.0414562E4,4.488478E4,6.5452703E4,1.1573031E4,2.1288453E4,5.107051E3,1.3455598E4,2.0728547E4,1.5466625E4,2.6230719E4,5.18845E4,5.5849673E3,1.17669375E4,2.0315701E4,2.4006926E4,3.1397236E3,2.7588277E4,5.4174995E3,6.651198E3,1.4051562E3,2.3130125E4,8.992883E3,2.4066016E4,1.5550711E4,2.2101281E4,8.780025E4,9.912646E3,2.5171025E3,1.4952665E3,1.2203125E4,5.1125156E3,1.196927E4,1.300283E4,4.455566E4,1.5743234E4,2.5855825E3,3.5905342E3,1.8843395E4,4.562247E3,3.3870742E3,4.5392925E3,7.678704E4,3.7674565E3,8.7558093E2,1.4669492E3,1.3429906E4,2.5511914E3,2.6658836E4,5.193289E3,0E0,7.0671074E3,4.0108423E3,1.1136281E4,7.8468086E3,1.0808094E4,7.2625312E3,4.505597E4,3.0639626E3,1.866081E3,0E0,0E0,0E0,0E0,0E0,0E0,0E0,0E0,0E0,0E0,0E0,0E0,0E0,0E0,0E0,0E0,0E0,0E0,0E0,0E0,0E0,0E0,0E0,0E0,0E0,0E0,0E0,0E0,0E0,0E0,0E0,0E0,0E0,0E0,0E0,0E0,0E0,0E0,0E0,0E0,0E0,0E0,0E0,0E0,0E0,0E0,0E0,0E0,0E0,0E0,0E0,0E0,0E0,0E0,0E0,0E0,0E0,0E0,0E0,0E0,0E0,0E0],"parents":[2147483647,0,0,1,1,2,2,3,3,4,4,5,5,6,6,7,7,8,8,9,9,10,10,11,11,12,12,13,13,14,14,15,15,16,16,17,17,18,18,19,19,20,20,21,21,22,22,23,23,24,24,25,25,26,26,27,27,28,28,29,29,30,30,31,31,32,32,33,33,34,34,35,35,36,36,37,37,38,38,39,39,40,40,41,41,42,42,43,43,44,44,45,45,46,46,47,47,48,48,49,49,50,50,51,51,52,52,54,54,55,55,56,56,57,57,58,58,59,59,60,60,61,61,62,62],"right_children":[2,4,6,8,10,12,14,16,18,20,22,24,26,28,30,32,34,36,38,40,42,44,46,48,50,52,54,56,58,60,62,64,66,68,70,72,74,76,78,80,82,84,86,88,90,92,94,96,98,100,102,104,106,-1,108,110,112,114,116,118,120,122,124,-1,-1,-1,-1,-1,-1,-1,-1,-1,-1,-1,-1,-1,-1,-1,-1,-1,-1,-1,-1,-1,-1,-1,-1,-1,-1,-1,-1,-1,-1,-1,-1,-1,-1,-1,-1,-1,-1,-1,-1,-1,-1,-1,-1,-1,-1,-1,-1,-1,-1,-1,-1,-1,-1,-1,-1,-1,-1,-1,-1,-1,-1],"split_conditions":[2.05E1,1.68E1,4.4E1,6E0,4.7517555E8,4E1,1.3146E4,5.3E0,7.6E0,7.236045E7,1.1798E4,2.24E1,8.681728E-1,8.09017E-1,3.0864163E11,3E0,2E0,1.8E1,2E0,3.3835532E7,9.072068E7,1E0,3.0864163E11,1E0,9.998477E-1,1.2E1,9.063078E-1,1E0,2.51E1,3.0749655E11,3.52E1,4.0673664E-1,9.488032E1,-6.293204E-1,4.71625E9,1E0,4.2261827E-1,-6.0181504E-1,3.56555E9,2.4503182E7,8.94037E-1,-6.293204E-1,2.37E2,-7.0710677E-1,1.88E1,3.0749655E11,1.2562E4,9.781476E-1,1.2E1,-7.547096E-1,2.46E1,2.88E1,-1.2186934E-1,4.4801598E0,2.19E1,1.1012E4,1.1949E4,2E1,1.8E1,9E0,2.82E1,1.3381E4,-5.591929E-1,1.7934172E-1,-1.8480584E-1,-4.3579966E-2,-2.6196703E-1,1.8888236E-3,-1.2743537E-1,